1183 100
the -0.03417935 -0.16207267 -0.059292365 0.053527623 -0.10659136 -0.08965007 -0.04301962 0.031492896 0.054342296 0.13332646 -0.049746368 0.11639455 -0.08239773 0.03149854 -0.035288688 0.084684566 0.006735484 -0.044245586 -0.12119634 -0.07206397 0.019201886 0.027363952 0.081408 0.05370618 0.14151739 0.09862183 0.14337708 0.11531945 -0.07744467 -0.06509812 0.12556164 0.05464264 0.0549685 0.11707918 0.0039496315 0.009176742 0.1252884 -0.18063289 -0.030400407 -0.012914865 -0.15578672 0.13396108 -0.12530492 -0.11176626 -0.04671923 0.062315527 -0.1601417 0.21396126 -0.051987175 -0.011394608 0.08096299 0.1388868 -0.006118808 0.020807132 0.050727736 0.00092140754 -0.0032379664 -0.036962274 0.12738669 0.097434625 0.16863759 0.11127358 -0.19935615 -0.12109355 0.06592585 -0.10575675 -0.09331911 0.059450034 0.013990499 0.07119742 0.057249207 0.13918625 -0.20539741 -0.07162626 0.010634619 -0.05344557 0.044219904 0.07670086 0.13687164 -0.02410142 0.1257727 -0.12720512 0.09841008 0.08211897 -0.08114627 -0.036975045 -0.0071038227 -0.12828928 -0.15630057 -0.038735077 -0.06776835 0.033075348 0.112163305 0.07461454 0.029339299 0.05478003 -0.031123178 -0.26524317 0.1302128 0.22309132
and -0.20257844 -0.084563605 0.09390235 -0.05433906 -0.03215289 -0.044054564 -0.021624507 0.05047555 -0.027367234 -0.10362714 -0.07201436 0.058722883 -0.12886314 0.11115546 0.05071288 0.020439023 0.09683988 0.1555209 0.045193516 0.03215277 -0.013082285 -0.13550565 0.13075715 0.0073313797 0.026661828 -0.037476383 -0.048490424 -0.03779807 0.1352005 0.0691866 0.031457607 -0.020085616 -0.12151691 0.081772715 0.16922915 -0.04578692 0.253304 -0.14263175 0.018746303 0.14666773 0.037040398 0.006996572 -0.23321062 -0.0041655307 -0.1071834 -0.029177105 0.09209495 0.08750597 0.04271505 0.15504037 0.07554432 -0.08482299 0.094734944 -0.07826972 -0.053190026 0.015312869 0.16729929 -0.06870073 -0.038747653 0.030661497 -0.19881317 0.0939838 0.039341334 -0.117149696 0.030872775 -0.04105287 0.03242693 -0.042080898 0.0051053734 0.019172918 0.18420571 -0.21596941 -0.05227285 0.06858651 -0.15298718 0.003890695 -0.11069169 0.1265338 0.24251336 0.014465237 0.09305685 -0.10495849 0.1368102 -0.08009503 0.014433469 -0.07172933 0.03007622 -0.025109256 0.053626917 0.09767758 -0.005309295 -0.021121075 -0.09108742 -0.03037564 0.06366932 0.06914951 0.02702948 -0.30047637 -0.049560588 0.0063094534
that -0.017018262 0.061612844 -0.023374166 0.15052852 -0.15268499 0.090903014 0.08347265 -0.0033295974 -0.088807076 0.076149836 -0.01992379 0.009207263 0.19549651 -0.013387289 0.13918664 -0.04301046 -0.015895944 0.05408185 0.01744018 0.0035724856 0.044498593 0.035456706 0.058730874 -0.112995625 0.23597673 0.0079387715 0.029423827 0.012830756 0.01986503 -0.032468718 0.10902902 0.007683515 0.20520975 0.20100436 0.09795316 -0.0715391 0.114570156 -0.15223043 0.036441434 0.0050018462 -0.109410666 -0.033074513 0.05915824 -0.00051131006 -0.10343517 -0.055131484 -0.037596017 0.07705341 -0.071215175 0.054366816 0.09913516 -0.021996293 -0.15674065 -0.122306086 0.19404398 0.0069818483 0.038736824 -0.027395343 0.09228658 0.03225207 -0.13844012 -0.08681269 0.1440534 -0.037652534 -0.12281957 0.04223552 -0.075753026 0.16506748 -0.18700252 0.16857332 -0.012904007 -0.028851615 0.063049264 -0.036567476 -0.096351005 0.19176213 0.059560567 -0.047004707 0.022149324 0.09484816 0.043389797 -0.15494981 -0.054755945 0.013405887 0.009214394 0.026045557 0.032303963 -0.28572163 0.07955354 0.15275075 -0.022270052 0.08855813 -0.05679375 0.08258224 0.20048434 -0.10276447 -0.0027205008 0.06610176 0.15808617 -0.13011272
his -0.16476946 0.05929082 0.07246672 -0.036032688 0.003956244 -0.037916638 0.046033334 -0.09209474 0.05358991 -0.043228157 0.08136318 0.087645315 0.09329717 -0.009674078 0.09127818 -0.09535472 0.18990843 -0.09527758 0.05897633 0.002802187 0.038662452 0.00077155477 0.029105231 -0.073116004 -0.1371725 -0.12793471 0.19481273 0.018518353 -0.027124107 0.029057821 0.02648332 0.03961177 -0.1439213 0.06214723 0.1645544 0.1485285 0.1005279 -0.01655006 -0.0067941453 0.100793496 0.10814307 0.07593992 -0.0024157525 -0.20261143 -0.039860316 -0.024857285 -0.13782753 0.16359563 0.04674439 0.04986187 0.035430536 -0.0060887937 0.051480893 -0.05982121 -0.13212617 0.05377082 0.12796055 0.017230297 0.04087745 -0.16449775 -0.04821716 -0.022080801 0.078045286 -0.06110132 0.056147974 -0.25073087 0.034717824 0.0794016 -0.12863392 -0.11291291 0.17740458 -0.06495895 -0.14438039 -0.021838456 -0.0047641406 -0.23638934 -0.04828442 0.14034697 0.011340282 0.07462207 0.06242736 -0.11125988 -0.018937021 0.0897079 0.035719622 -0.13726269 -0.012132265 0.04556229 0.097325906 0.14112912 -0.33473086 -0.035820466 -0.058762986 -0.011871353 -0.0021590171 -0.039942805 0.088289425 -0.12382643 0.13757084 0.0011659194
was 0.048445456 -0.071006045 -0.06390729 -0.080155455 0.031188749 -0.03747561 -0.047490563 -0.06466479 0.19278602 0.13687792 -0.107354544 0.117745794 -0.020894552 0.09123882 -0.0031848336 -0.0006943871 0.20747158 0.26283124 0.16847631 0.0066076717 0.06257186 -0.13771828 0.26806596 -0.09616129 0.042742606 -0.024371037 0.09647837 0.17369723 -0.208673 0.009412119 0.18379948 0.1238509 0.1134456 0.032987297 0.042605158 -0.14993103 -0.010001161 -0.09456627 0.01692136 -0.044324227 -0.121536165 0.011259857 0.042080607 -0.13624227 0.0012361839 0.018939687 -0.10574834 0.0054177335 -0.02609394 -0.13783818 0.07953375 0.06291163 0.06733306 -0.038860828 0.00068016263 -0.14327581 -0.12031668 -0.14692387 0.1286251 -0.03552322 0.17769344 -0.082652755 0.028302345 0.047087952 0.024330419 0.08837281 -0.13175355 -0.074315116 -0.0988303 0.15568195 -0.10173064 0.08007977 -0.07822625 -0.004146876 0.06372102 0.025331665 0.044266213 -0.04386586 0.015721638 0.012354459 -0.030939123 -0.17102619 -0.022662947 0.11109262 -0.00412042 -0.088739 0.11020253 0.022522142 -0.20908011 -0.12585966 0.05627439 -0.040369198 0.06430525 0.0035361375 0.054002006 -0.13337187 0.036611576 0.04991594 -0.032070704 -0.03177861
with -0.18339008 0.02546391 0.06020833 -0.30284715 -0.006536886 0.007007309 -0.09429146 0.020610144 0.11772106 0.011407696 -0.1712605 0.03564371 -0.10818025 -0.009235091 -0.024272261 -0.024545375 0.1223195 0.04391188 0.054154385 0.062852345 -0.12699519 -0.16293946 0.082812846 0.06665273 -0.0019348563 -0.14160857 0.14336735 0.020229243 0.06659054 0.021915304 -0.050825354 -0.016405331 -0.1324235 0.034616508 0.058903206 0.010139403 0.19364424 -0.041796405 -0.069692925 0.087634295 0.057598922 0.107987754 -0.21496724 -0.20540532 -0.055948842 -0.051479585 -0.040337402 0.17461374 -0.0047774035 0.05332976 0.028012153 -0.05428874 0.19666025 -0.08696816 -0.068400264 0.038610045 0.061872408 -0.22998916 0.026226087 -0.1385417 -0.020525888 -0.07805403 0.0769042 -0.124652565 0.16979897 -0.07878815 0.015576552 0.050293464 -0.04764687 -0.07746397 0.24337527 -0.07556863 -0.009082778 0.018670734 -0.11146997 -0.10051228 -0.09210345 0.14324485 0.10423434 0.10326682 0.0664669 -0.03852693 0.11718535 -0.045783542 0.057133373 -0.15624385 0.0527858 0.10600711 -0.04618187 0.06722762 0.05541767 0.025009697 -0.044948313 -0.057760175 0.09916755 0.024036378 0.032996755 -0.13398811 0.027129807 0.06385596
had 0.14389387 -0.11094878 0.043939147 -0.08185631 0.12139004 -0.07025598 0.020215632 -0.0944656 0.099570945 0.08002901 -0.05280004 -0.06535101 0.061511274 0.15231074 0.11866674 -0.20744295 0.12208283 0.18297929 0.17587312 -0.007577872 0.1455768 -0.10534544 0.15164308 0.1060099 0.039829254 0.022935646 0.07954334 -0.06533811 -0.10944762 -0.044092845 0.1946852 0.19551517 -0.018797169 0.047211397 0.0059286547 -0.16335289 -0.092779 -0.20450626 0.009440304 -0.029435858 0.0049365503 -0.2063714 0.11634734 -0.22119287 -0.0014241565 -0.03690617 -0.116398744 -0.1917099 -0.0005778875 -0.08934083 0.062366627 -0.02893951 0.0043285945 0.01742246 0.055987734 -0.08605998 -0.042669233 -0.19308197 0.0723946 -0.08656802 0.039156478 -0.15017451 0.01702021 0.040928334 -0.06363102 0.05914973 -0.10005852 -0.016861115 -0.1374446 0.07388697 0.03664114 0.038829464 -0.030718835 0.091464154 0.10702734 -0.0018806175 0.06875162 0.0684691 0.06361495 0.058592144 -0.033849612 -0.15995912 -0.021403069 0.05728714 0.119849846 0.038467754 0.21249638 -0.008823057 -0.04434252 -0.088129975 0.006723072 -0.06155385 0.07552536 -0.11393796 -0.0047079576 0.0069391145 0.11435401 0.014508783 -0.00089459453 -0.12025366
her -0.0800371 0.09604194 0.15458184 -0.058384437 0.0091063045 -0.07189277 -0.103281446 -0.14359966 0.07630873 -0.03977157 0.037443165 0.15396866 0.026114225 0.017317556 0.17246942 0.0033362792 0.07678476 0.0011607262 -0.018819548 -0.0135765625 -0.09469172 0.072075255 0.1493694 -0.03950019 -0.13797425 0.03583231 0.09450503 -0.036071885 -0.007761987 0.1426232 -0.047857568 0.12802562 0.06083051 0.12738724 0.23575495 -0.12904799 0.06757485 0.01962196 -0.1043602 0.17626774 0.10184877 0.08112072 -0.022516653 -0.11186032 -0.17261207 -0.10959246 -0.1598412 -0.03264708 0.14684115 -0.05506453 -0.02296149 -0.07867302 0.09979988 -0.15323822 -0.0018866557 -0.06379224 0.066797964 0.028945958 0.18221305 0.072043374 -0.013199962 -0.178122 -0.015643034 0.001820126 0.08149378 -0.036222987 0.03705415 0.027741464 -0.1046151 0.024882149 0.0077207764 -0.14999466 -0.052871097 -0.012090033 -0.16728984 -0.09503939 -0.008131759 -0.022402626 0.09471682 -0.01080816 0.016826855 0.068183534 -0.017988235 -0.09758974 0.09418723 -0.122017026 0.11701459 0.06326878 0.27993703 0.052394677 -0.023629071 0.07774599 -0.07496057 -0.018799251 0.12600243 -0.10623896 0.014928845 0.022255052 0.26462692 -0.13918549
not -0.07497223 0.16263813 0.09800996 0.18908569 0.027654804 -0.0064614234 0.10673597 -0.07904514 -0.13782805 0.02834888 0.05168625 -0.08106043 0.12172429 -0.0012261843 0.21363768 -0.013141769 -0.120406106 -0.042311896 -0.107161574 -0.06804274 0.098453075 0.06905076 0.18146574 -0.14111626 0.060214613 0.073438264 -0.021464525 -0.065623514 -0.046035457 -0.102329046 0.09928162 -0.055632565 0.10664952 0.2475622 -0.077679195 -0.022091744 -0.035530806 0.15214692 0.06516676 -0.10145696 -0.08518352 0.091469675 0.028120711 0.025663832 -0.101708494 -0.11369837 0.06474458 0.11293128 -0.08738183 0.01892397 -0.0050297417 0.00868154 -0.009570395 -0.15399154 0.1498734 -0.014535251 0.037291266 0.06625441 0.09750277 -0.17764473 -0.05454378 -0.09035053 0.10837553 -0.024462262 -0.14993218 -0.038825475 -0.03496973 0.15239333 -0.12170631 0.13444749 -0.16285874 0.027188782 0.018916467 0.08479766 -0.07579258 0.015546162 -0.067482434 -0.09449701 -0.11310088 0.017652972 0.0751423 -0.09776937 0.11128615 0.10210579 0.024015956 -0.041549064 -0.03768051 -0.21854763 -0.04167191 0.121692054 -0.04198627 0.01813587 0.056266334 0.12910174 0.13847132 0.13060272 -0.07069858 0.13009608 0.098767355 -0.17464608
him -0.0781389 0.09704593 0.031349238 0.058626976 0.0687593 -0.13568048 -0.008294305 -0.08278188 0.025269503 -0.12028371 0.12516624 -0.1122316 0.04667296 0.046489667 0.23620032 -0.11685828 0.12093323 -0.12949355 0.06884713 -0.026803812 0.14460845 0.14633937 0.004574532 -0.27177995 -0.029600248 0.0037006903 0.07360155 -0.011917936 -0.059998997 0.034560036 0.06298097 0.00361989 -0.12537724 0.11898092 0.09257366 0.033732362 -0.04878953 0.047874514 0.0021497142 0.017957546 -0.037535243 0.02317644 -0.017077994 -0.242169 -0.039713386 -0.11357776 -0.03583552 0.010551903 0.03302375 -0.00014880112 -0.0073442473 -0.04482525 0.07092196 -0.01959101 -0.06746287 -0.00019622566 0.03057187 0.02752914 0.1251336 0.035440776 -0.045800984 -0.08535801 0.29703513 -0.0053401636 -0.04606587 -0.27030784 -0.04184541 0.10315226 -0.16234817 0.10916027 -0.019405056 -0.07861255 -0.20417495 -0.09293133 -0.13984005 -0.023778485 0.013500373 0.13507387 0.028542802 -0.06920932 0.008970022 0.027830752 -0.103458785 -0.012708665 0.08867505 -0.10390896 0.036447406 -0.011150776 0.13325883 0.18927683 -0.22793062 -0.046144105 -0.120497465 0.03991578 0.0060707787 -0.06926223 0.011330776 -0.005609406 0.057341363 -0.15188673
but -0.09162047 0.07164104 0.065804854 0.01655942 -0.09042495 0.054074883 -0.031228729 -0.11107464 -0.013206079 -0.06780575 0.051745918 -0.04651946 0.14971249 0.029994825 0.08237989 0.03124498 0.10222657 0.15506971 0.034429334 -0.0075064586 -0.0014547202 -0.089357235 0.18077731 -0.19422348 0.10186284 -0.02768005 -0.07591209 0.06321336 -0.044801984 -0.024114884 0.0470351 -0.026195126 0.15844256 0.17248754 0.090122856 -0.016468095 0.13191892 -0.047603227 -0.057954844 0.05233766 -0.0797367 0.0072346358 -0.029216178 0.0234975 -0.12240293 -0.033772543 0.021149967 0.12598342 -0.18447964 0.12687752 0.052367773 -0.06824301 -0.052212432 -0.15557536 0.085660845 0.034548525 0.022653474 0.07675293 0.058972668 -0.013099934 -0.15399939 -0.056513645 0.16601041 0.023326075 -0.08489646 -0.02563652 -0.17127962 0.013448942 -0.036126237 0.19714928 -0.122849435 -0.11568138 0.02268427 0.105960935 -0.097296506 0.23192333 -0.041752536 -0.118412316 -0.059860114 0.05372544 0.021975309 -0.06541979 -0.026756775 0.036016904 -0.09466156 0.012276184 -0.0030431636 -0.28066328 0.07422334 0.1435537 0.10465788 0.02018669 -0.13049506 0.15407397 0.120132424 -0.032014802 -0.116920896 0.04690637 -0.10456158 -0.2654824
you 0.20551538 0.115266785 -0.015923442 0.085956216 0.08929853 -0.00803817 -0.044888917 0.001120505 -0.12528886 -0.1832842 0.11955266 -0.113450274 -0.007363368 -0.031639725 0.02764949 -0.039094664 -0.09764966 -0.14000711 -0.087414905 -0.074762225 -0.04193407 -0.027726391 -0.056977347 -0.08834612 -0.19027422 0.028648973 -0.07172761 -0.001668407 -0.056610256 0.010159359 -0.1377658 -0.080349915 -0.046668507 0.032966923 -0.0480909 0.042194556 -0.020216946 0.019039689 -0.16975965 -0.0073398296 0.059045188 0.09810632 0.09474132 0.074240364 -0.037911687 -0.019274043 0.17721298 -0.027329685 0.08872283 0.19228056 -0.06800364 -0.14128746 0.11752664 -0.002014566 -0.048452612 -0.00029325503 0.030278765 0.25399306 0.038755212 -0.021414898 0.055786427 -0.004520813 -0.005400178 -0.02748838 -0.12658666 0.026087316 0.03038504 -0.037180092 -0.106402434 0.12187259 -0.15509368 -0.107926875 0.014229605 -0.10521003 0.023001635 0.13773696 -0.06286298 0.14684659 -0.01220402 -0.034075886 0.042952646 0.1804279 -0.2912904 -0.087317705 -0.035456445 -0.016162228 -0.0938077 -0.12062794 0.09731837 0.096076764 0.075370565 -0.021466123 -0.085550085 0.20432447 -0.04505293 -0.17406856 -0.25346974 -0.038464967 -0.04598939 0.018520482
for 0.015545276 -0.13218793 0.11353751 -0.08965605 0.03907183 -0.0013798398 -0.05053826 0.010340509 0.028201258 -0.107891746 -0.120982364 0.022998465 -0.0021547917 0.041244358 0.15710084 -0.10153648 -0.12984067 0.07637392 0.12521212 0.099201135 -0.042166132 0.06497644 -0.093028255 0.105594575 0.052888762 0.09033258 -0.19386904 -0.043747872 0.039578106 0.054753575 -0.093336836 0.1425363 0.017929697 0.17013197 0.013786556 -0.15337303 -0.001881283 -0.17196605 -0.1362329 0.11408565 0.004621502 -0.032191943 0.12865326 -0.048978664 -0.12438409 -0.07493558 0.11063459 0.015920473 -0.032886803 0.13988906 -0.02084231 -0.13890135 -0.0089171035 -0.18133318 0.22245824 -0.06928907 -0.04579141 0.006107279 0.043299258 0.011670002 -0.0953265 -0.06693837 0.060473803 -0.02726986 -0.06735393 0.08515725 0.18615183 0.06009633 -0.17996429 0.16892873 0.12163661 -0.076331936 0.034525946 -0.19177431 0.13215233 0.22405168 -0.068838105 -0.037746 0.06356583 -0.0026081202 0.011233102 -0.032514013 -0.098478034 0.12465435 -0.038357474 0.050087154 0.21035363 -0.11757798 0.038078748 0.15157092 -0.004048001 0.07474798 0.042163607 0.0073401676 0.05365848 -0.07237467 -0.01030265 0.07912905 0.17217582 -0.07375361
she -0.10410902 0.256706 0.11688514 -0.0033080908 -0.009673678 -0.04651098 -0.1286027 -0.18391086 0.0007348486 -0.001040079 0.00492772 0.04650775 0.089321084 0.025785925 0.18571806 -0.011944876 0.04196319 0.057483744 -0.0037334058 -0.08102342 -0.017112259 0.056228604 0.20146365 -0.14065517 -0.056702953 0.08233678 0.0137142325 -0.09404494 -0.06751752 0.08384769 -0.021962522 0.08942758 0.14022128 0.1605329 0.16689867 -0.14085434 -0.079687804 0.124135174 -0.07500757 0.034396466 -0.0059864307 0.048199866 0.017510945 -0.087984785 -0.23739894 -0.22239165 -0.005148304 -0.15499923 0.070168816 -0.03479242 -0.01214368 -0.11165357 0.009444587 -0.120509654 0.09973081 -0.095041126 0.04645188 0.056006685 0.07488839 0.113221146 0.004193642 -0.17235297 0.056642927 0.009071318 -0.057139073 -0.049277358 0.023653693 -0.0060659116 -0.08528119 0.16179197 -0.09775807 -0.23969546 -0.06685666 0.024291035 -0.15034151 0.06494647 -0.011056015 -0.004297169 -0.01155395 -0.029007481 0.007841808 0.14735073 -0.06511483 -0.12231794 0.055125862 -0.0708292 0.034951698 0.013831983 0.19425876 0.06806691 0.12119334 0.009719118 -0.12740447 -0.009402268 0.071047254 -0.0989795 -0.04203057 0.043612864 0.16033565 -0.13420585
said 0.0761154 0.09525699 -0.012314257 -0.07301767 0.19502825 0.02262548 0.01223943 0.014400142 0.039777648 -0.15993777 -0.018409288 -0.18928185 -0.04281924 -0.029766813 -0.12655053 -0.025297271 0.08543351 0.0072571132 -0.047910772 -0.08610066 -0.07087634 -0.16720772 0.058216862 -0.057486393 -0.12260288 -0.060981914 0.09854931 0.102530055 -0.05671167 0.009508663 -0.19171901 -0.047561463 -0.09144543 0.0603669 -0.27839676 -0.037008233 0.06663788 0.038081072 -0.039836537 0.048180036 0.16584328 0.0935776 0.0878051 -0.04330512 0.038299263 0.013050113 0.1897293 0.03711851 -0.017343214 0.19411184 -0.03517654 -0.07331946 0.23795883 -0.10816642 -0.10649137 0.0182012 0.017780967 0.064042985 -0.09583119 -0.09996825 0.026133398 -0.11590501 0.012291199 -0.046585754 -0.060269162 0.03217497 -0.06237015 -0.101614915 -0.13927422 0.1151792 -0.055160757 -0.14789155 0.25646493 -0.035171684 0.005158738 -0.008284673 0.052320257 0.007241263 0.007273118 -0.025553096 0.07095095 0.12802204 -0.12744729 0.0066726427 -0.020737149 -0.012584149 -0.060036797 -0.013858164 -0.076068975 -0.035544235 0.29225168 -0.06553128 0.052408405 0.1929024 -0.049329076 -0.07711288 -0.1625001 0.042734906 -0.07137821 -0.047589812
all 0.12598708 0.06719223 0.0014422222 0.19497158 -0.10704334 0.08433349 -0.060720365 0.142111 -0.12950975 0.05836721 -0.14514513 -0.035816077 -0.026579103 0.08873512 0.042630777 0.024055403 -0.13937046 0.14279221 0.04970899 0.1860254 -0.062723696 0.013012018 0.035704907 -0.08278473 0.056760117 -0.05016113 0.00036802856 -0.0005152559 -0.046466824 -0.052291613 0.06924412 -0.11878694 0.24408726 0.12776405 -0.023242714 0.0046425536 0.10142493 -0.017510017 -0.100248836 0.052784353 -0.08966004 0.008882809 -0.0866688 0.05033189 -0.0767957 0.085752934 -0.16179608 0.08229339 0.019853074 -0.06396993 -0.07949961 -0.09660304 0.09910795 -0.174165 0.24526992 0.05413839 -0.06436002 -0.046002634 0.17806458 0.004399877 -0.045898966 -0.04481594 0.11200168 -0.081843376 -0.18500191 0.058067724 -0.088310756 0.17367816 -0.039605923 0.0575242 -0.086595096 -0.0005566874 0.0029550495 -0.11057675 -0.02179479 0.1587437 0.0077531603 -0.053073313 -0.1590788 -0.03128709 0.033228092 -0.07433677 -0.1585542 0.076024 -0.07262378 0.0072866245 0.05264373 -0.21237972 0.09321302 0.04667251 -0.042904858 0.14321871 -0.035331633 0.1189216 0.14609829 0.032140058 0.045017812 0.21004754 -0.032640725 -0.11846328
from -0.10675255 -0.17930445 0.12778094 0.019818803 0.021891953 -0.048237268 -0.1376393 0.0961605 -0.07660495 0.008792761 -0.056011405 -0.069244124 -0.079521835 0.074401565 0.019591449 0.003350312 -0.10099147 0.091473065 0.18923971 0.0866902 0.12673305 -0.13624217 0.17541507 0.023656705 0.18846159 0.24899517 0.18756685 -0.10521207 -0.0067947693 -0.018791009 0.08798635 0.075354114 0.016657306 0.08727798 0.14899021 -0.17701316 0.068074614 -0.19859241 0.20168386 -0.035965532 0.030702796 -0.10972293 -0.042566486 -0.069757566 -0.02908674 -0.055104412 -0.006186581 0.07634143 0.055532347 -0.084924676 0.077193186 0.00027436126 -0.009154815 0.015981661 0.076489136 0.03861363 0.010998407 -0.073563725 0.06510386 0.0854352 0.061319362 0.15065572 -0.09841782 -0.014427674 0.11452543 -0.017057016 -0.012891367 0.12309472 0.04743558 0.00047683183 0.14944433 0.13954394 -0.11761421 0.047556505 0.009043277 -0.091075964 0.051837347 -0.018762853 0.22223441 -0.027299477 0.12943594 -0.20660304 0.09721061 -0.0054371776 -0.10125739 -0.029328695 0.041304294 -0.11796402 -0.06412137 -0.049523346 -0.10195487 0.01805843 -0.044728573 -0.037894126 -0.044931084 0.11011795 0.020753715 -0.24360414 0.03851752 0.027062558
have 0.21116684 -0.0039453595 0.09008626 0.016797459 0.10460101 -0.031970806 0.044199996 -0.052591067 -0.17805463 -0.10040646 -0.020589994 -0.19158909 0.103620425 0.09450328 0.13404837 -0.18560547 -0.000843591 0.0019283716 0.13508244 -0.12545653 0.12560716 -0.07679514 0.0009178384 0.12389064 0.034384068 0.12349133 -0.047466096 -0.14492741 -0.025781136 -0.1425493 -0.057306904 0.15356354 -0.12744424 0.04069732 -0.020675205 -0.10147828 -0.14828235 -0.19515993 -0.0063159377 -0.04415245 0.055548966 -0.16973633 0.17726499 0.01094061 -0.029910762 -0.054125745 0.054458637 -0.14814334 0.09038183 0.081860386 -0.052643843 -0.09808002 -0.04531013 -0.06618999 0.2010624 -0.06424378 -0.017933289 0.01668577 0.051800434 -0.098992 -0.08219574 -0.06337352 -0.059377253 0.07084613 -0.12008843 0.055424873 0.008909304 0.0764441 -0.09520564 0.06245106 0.009999096 -0.12489931 0.06222125 -0.045311645 0.1678779 0.19877133 0.05680916 0.12795252 0.036602344 0.105296545 0.009986987 -0.071292765 -0.15952447 0.07536867 0.071115255 0.036596585 0.14724241 -0.19427855 0.06507073 0.019870412 0.0008576187 0.0039349487 0.12423637 0.14751466 0.032964837 0.10612849 -0.009345878 0.0064512575 0.015428072 -0.113268726
were 0.11354945 -0.21868439 -0.0665399 -0.065688945 0.07747748 -0.009478129 -0.07607387 0.17704093 -0.04982347 -0.020564705 -0.15017541 -0.044471987 -0.13510324 0.14450052 -0.021781195 0.092801474 0.019355182 0.23392202 0.1913919 0.12761503 -0.024904171 -0.13744453 0.10429921 0.01614132 0.121033944 0.09884503 0.0031303673 0.07682897 -0.14179608 -0.012457126 0.11018707 0.0011182737 -0.05657137 -0.17774244 -0.01239748 -0.061551243 -0.025752505 -0.09051673 0.0022851324 -0.018240632 -0.111498855 -0.04003143 -0.09088801 0.022148412 0.127462 0.17584728 -0.117821775 -0.017200004 0.04407977 -0.15356234 -0.05513603 0.014786115 0.09103362 -0.049530014 0.01606025 -0.021174014 -0.23497747 -0.1286582 0.16369851 0.018836655 0.15098217 0.08589234 0.038848117 0.08654651 -0.014270406 0.044043563 -0.16359009 0.006737806 0.09117298 0.009159674 -0.024104485 0.10790804 -0.093986765 -0.01772749 0.090624586 0.030798739 0.005381061 0.092894554 0.019722925 -0.099259906 -0.009770503 -0.11275246 0.0018420907 0.02573327 -0.0066102953 -0.023666026 0.22192182 -0.02131882 -0.14657268 -0.170731 0.049990807 0.027059052 0.08041202 0.0758381 0.115190744 0.072599515 0.0930186 -0.06490557 -0.19126691 -0.12349226
what 0.14008072 0.1874959 -0.0361648 0.19652306 -0.036946375 0.0925369 0.110989586 -0.042709712 -0.0930235 -0.041732106 0.034247246 -0.10285418 0.09984965 0.016500203 0.14619501 0.0021734494 0.0024232098 -0.067457676 -0.09813517 -0.028653543 0.046832766 0.11220336 0.024440266 -0.20208639 0.017597897 0.02807821 -0.031128079 -0.0011578595 -0.051504795 0.025723934 -0.00015677258 -0.08040086 0.11675656 0.08980215 -0.010272885 0.030891703 -0.016690735 0.019650327 -0.062452596 -0.014402616 -0.081396185 0.034445945 0.08239923 0.06985444 -0.06974603 -0.027222404 0.10968062 -0.021587174 0.03186692 0.10662553 0.0025874632 -0.08486182 -0.06740758 -0.10982491 0.11405235 0.043759737 -0.007198943 0.10561079 0.093308926 -0.017951803 -0.03204866 -0.12814835 0.17058359 -0.04865421 -0.23173845 -0.08302976 -0.09036442 0.11318606 -0.17864363 0.15174706 -0.18853116 -0.17508818 0.029516565 -0.1385054 -0.14832823 0.24250488 0.040254902 0.055941258 -0.09096927 0.030935481 0.031899318 0.026071401 -0.12810828 -0.057079736 0.026206383 -0.011461616 -0.022434408 -0.20751339 0.0685948 0.117183074 -0.004037556 -0.0019171081 -0.110979095 0.20447859 0.0721047 -0.17681329 -0.12911895 0.16835812 0.008706245 -0.1467976
they 0.10737285 -0.00048594107 -0.029525887 0.23298162 -0.05619068 0.031287834 -0.023454186 0.10636017 -0.1935122 -0.08921679 0.092674285 -0.07747857 -0.019482123 0.11388302 0.15244536 0.008765973 -0.23531733 0.061807692 -0.052873068 0.08722033 0.05141568 0.03828597 0.0405477 -0.079271056 0.019276528 0.13945907 -0.12731284 -0.09078965 -0.05419107 0.033781692 0.109007195 -0.16094805 0.0931656 -0.031379033 0.03177409 -0.03959125 -0.08805972 0.050319485 -0.039263193 -0.019511621 -0.12908599 -0.045969635 -0.14480612 0.14239487 -0.033560075 -0.056060325 0.017909903 -0.1276708 0.07558843 -0.0833277 -0.03799853 -0.09643354 0.032585647 -0.0698729 0.09253686 0.023319324 -0.03946684 0.08335764 0.08881618 0.12339231 0.009158732 0.16393693 0.123016566 0.00563033 -0.25073156 0.0040461333 -0.07639906 0.13051768 0.075456165 0.115750946 -0.12631948 -0.060022235 -0.16361548 0.06467587 -0.08806775 0.14238389 -0.03432962 0.16074048 -0.055170864 -0.18513587 0.019321557 0.029136721 -0.124404006 -0.16682167 -0.017117914 0.07955363 0.058279462 -0.19155575 0.06133193 0.05072732 -0.011800585 0.02762005 -0.115933806 0.047884345 0.095609106 0.018966699 -0.0030511317 -0.12381092 -0.16124049 -0.15019
one 0.01586864 0.09480623 -0.01853354 0.01319261 -0.10701138 0.13191643 -0.20256376 0.19426635 -0.22778012 0.09266455 -0.0114629315 0.13156818 0.026467219 -0.028552655 -0.14046231 -0.00612483 -0.22155719 -0.03158396 0.07739577 0.057160836 -0.18256404 -0.18108708 -0.06322176 0.11580638 0.059315942 0.07705444 0.07066173 -0.03087975 0.03691285 0.037795253 -0.026042664 -0.25631934 -0.019942844 -0.13057607 0.124905616 -0.06359413 0.03460532 -0.044795584 -0.12481348 0.12562855 -0.060616445 0.16598952 -0.11526457 0.069097 -0.15523031 0.13371108 0.026704539 0.0650003 -0.033680104 -0.09786927 -0.012270278 -0.065618396 -0.04045055 -0.038449418 0.09025429 -0.06724171 -0.042378686 0.038251393 -0.0009692139 -0.12375174 -0.07872203 0.13843349 -0.11208523 0.069532804 -0.07715418 0.07637024 0.041980434 0.040448096 0.038763884 0.11658808 0.027131215 0.17763914 0.04004579 -0.053876597 -0.009968959 -0.030690925 -0.089273185 0.12195691 0.11128799 -0.0669021 -0.096138746 0.025613097 -0.021457411 -0.032013662 -0.15118994 -0.06491381 -0.095644474 -0.06369423 0.06548999 0.13370475 0.22139831 0.049256068 0.0020757865 0.14638446 0.08193231 -0.022670215 -0.08683358 -0.04892086 -0.15538688 0.002044915
who -0.043186765 -0.010057448 -0.07493344 0.0072671166 -0.06571193 0.02666648 0.14199494 0.10377937 -0.046100255 0.0063713253 -0.033448614 -0.06638798 0.033769656 -0.079045996 0.03558416 0.055809766 -0.14083098 -0.075568356 -0.030213308 0.001329541 0.0007210183 0.040808797 -0.12389412 0.101290144 0.16474238 0.1169447 0.028612966 0.14404953 0.07645209 0.013128972 0.06597539 -0.15956978 -0.1553154 0.041259475 -0.065340176 0.04913782 0.13548009 -0.06720746 -0.090799905 0.02527629 -0.04987147 0.012781271 -0.16155499 -0.13545643 0.03172644 -0.08174947 0.18644539 0.08029078 -0.1705039 0.18704951 0.067727834 -0.039138053 -0.05382364 0.039373837 0.026094986 0.11992022 0.011793836 -0.1308051 -0.12055619 -0.115727246 -0.09684839 -0.06254899 0.1472798 -0.05659396 -0.104836576 -0.08946756 -0.05496191 0.11660423 -0.1658598 0.26515266 0.12859854 0.014932491 0.14413112 -0.037863206 -0.059728317 0.022989826 -0.12526894 0.2400892 0.14842267 -0.009373569 0.028953712 0.032997034 0.13621742 -0.019712571 0.13193525 0.08781019 0.031180765 -0.021391999 -0.09296821 0.12165253 0.19682135 -0.12587999 -0.052306652 -0.06295425 0.06296653 -0.09206492 -0.044765063 -0.18098842 0.009180532 0.01750677
this 0.03615106 0.058579028 -0.016831143 0.07351977 -0.0896746 0.014974657 -0.043525834 -0.03186166 -0.00846331 0.1406939 -0.08058283 0.18558829 0.20932806 0.020015793 0.10094726 0.00825009 0.05961013 0.015959637 0.046139173 -0.04726731 -0.03715173 -0.0020574417 0.031270675 -0.04228167 0.07329992 -0.054441884 -0.01617281 0.03439446 -0.08314604 -0.06438483 0.08402394 0.10086801 0.1156718 0.18664655 0.07326994 0.039690703 0.066898175 -0.16729447 -0.18099488 -0.002642243 -0.113167375 0.14628163 0.18194285 -0.05492794 -0.18507032 0.041441213 -0.1300666 0.16793045 -0.115055725 0.1372341 0.049041335 -0.023619153 -0.116519794 -0.087317064 0.20940891 -0.059102435 0.033628985 0.07464106 0.08748566 -0.048906073 -0.008538616 -0.06304457 0.036674105 -0.008501169 -0.15835463 0.05923839 -0.012962883 -0.035118535 -0.21160315 0.19723745 -0.013266472 -0.008151476 0.025347894 -0.15229577 0.10550951 0.19661333 -0.035465207 -0.02441475 -0.024296902 0.10015569 0.08718332 -0.12860359 -0.12871282 0.10366063 -0.08724954 -0.011690315 -0.003271599 -0.16278832 0.0060136714 0.15147291 -0.019191913 0.04328305 -0.021104248 0.19401337 0.116346195 -0.1483898 -0.058174014 0.053363416 0.15591793 0.00012443734
which -0.06515101 -0.057990044 0.033873692 0.103278935 -0.14399202 0.059260193 0.053921442 0.06332471 -0.005876975 0.13031814 -0.024834672 0.11620377 0.03934632 -0.018147934 0.100283176 0.026216952 -0.072835885 -0.021381317 0.058220018 0.12084448 0.048577763 0.034827024 0.03472986 0.057885624 0.14485288 -0.049686883 0.05384325 -0.026762733 0.13673547 0.02009192 0.19575788 0.016845115 0.12925735 0.1724748 0.2594543 -0.038371567 0.22830378 -0.20779367 0.054763887 0.07385723 -0.12593418 -0.033141375 -0.1214751 -0.076871544 -0.12534297 0.016477114 -0.098987214 0.18609446 -0.012593869 0.024042329 0.10635657 0.017767088 -0.1373938 -0.0077042477 0.16359304 0.023060387 0.11580173 -0.081671834 0.07363142 -0.010046063 -0.17279948 0.034485094 0.03566545 -0.06832275 -0.037682615 -0.05746251 0.014355054 0.13377059 -0.08182165 0.031047123 0.12351133 0.010926359 -0.067500934 -0.040916014 -0.18407433 -0.054441836 0.0107099665 -0.022581894 0.088304535 0.09776131 0.06556716 -0.26504117 0.0945085 0.05044394 0.019590538 0.024947237 0.036889277 -0.08913033 0.08192387 0.11467403 -0.2152406 0.04663445 -0.06535828 -0.08008571 0.11437529 -0.034159858 0.108510956 -0.02884328 0.20149556 -0.03204713
pierr -0.1770753 0.26349136 0.0099844895 -0.015677959 0.049339544 0.026622476 -0.049300127 -0.09071911 -0.03249205 0.06878088 -0.018859204 0.004115242 0.18388607 0.011098869 0.103532985 -0.08725149 0.10186658 0.0008519019 0.006726164 -0.044064507 0.048820227 0.012471524 0.14460076 -0.2031299 -0.05101941 -0.025945948 0.09235792 -0.10530753 -0.05737606 0.07680929 0.09457164 0.02212004 0.00092971936 0.13551171 0.05363831 0.08576263 -0.05982765 0.16408919 -0.07272275 -0.029633902 -0.0526451 0.14642568 0.019488692 -0.17825677 -0.21529411 -0.15009034 0.0067399447 -0.11423819 -0.004723282 -0.09646158 0.052523628 0.009704838 -0.016118865 -0.04322396 -0.04383761 -0.07801475 0.06153512 -0.028422058 0.018513432 -0.00806722 0.07289306 -0.11040835 0.17400832 -0.04840097 -0.12569757 -0.20719354 -0.03519063 -0.11275588 -0.13649565 0.12130682 -0.038928255 -0.19206396 -0.20384002 0.0639982 -0.14799882 -0.09575517 -0.01096775 0.17075391 -0.04013148 0.0417515 0.038925424 0.15156205 -0.050448652 -0.15123203 0.0084857615 -0.09899499 -0.09961043 0.07127788 0.033803836 0.12871216 0.023482537 -0.06400151 -0.13780436 -0.09583857 -0.0038492675 -0.14791669 -0.0438383 -0.096954644 0.118572645 -0.02497891
princ -0.05441351 -0.101511456 -0.17915466 0.12786786 0.114831865 0.18650551 0.030535363 -0.030641524 -0.20495959 0.1744031 -0.12942688 0.09021795 0.025032958 -0.036609795 -0.09187082 -0.0395685 0.035807405 -0.08500418 0.09721642 -0.007460656 0.18506625 -0.09467302 0.20374165 -0.09164724 -0.1797688 -0.116170354 -0.04733431 0.10594723 0.057469413 0.12501612 0.051528744 0.02692674 0.03803391 0.18155175 -0.017160723 0.069094546 -0.096759036 0.0737686 0.04386947 0.07765154 0.13440038 -0.042335548 -0.006081322 -0.019543504 -0.09901703 -0.015435387 0.12430347 -0.042965114 0.15988319 -0.043538187 -0.008725654 0.03545371 0.109058455 -0.03946375 -0.0018428667 0.09443149 -0.021594038 -0.002152696 -0.06910942 -0.24378869 -0.006925722 -0.09344683 -0.0026493887 -0.047174133 -0.14394276 0.021861691 0.07491778 -0.028640557 -0.086524345 0.007235241 -0.09351279 -0.15944406 -0.08578397 -0.08876977 -0.07780413 -0.17880827 0.11928986 0.15125267 0.01843351 0.1626394 0.013544923 0.06720904 -0.054375835 0.14877166 -0.0260136 -0.12844788 -0.06353061 0.105272844 -0.056885224 0.040144246 0.052701026 -0.10221037 -0.08252368 -0.0870524 -0.16264388 -0.15845542 0.046784285 0.115740836 0.0062696873 0.038683157
look -0.14415586 0.18637545 0.018298354 -0.20790006 0.13164867 0.015244142 -0.067910254 -0.019066405 0.19125293 -0.044162013 -0.07700839 -0.13887653 -0.08730888 0.041323703 -0.023097254 0.04153524 0.13325137 0.09471967 -0.029527968 0.063521855 -0.13258024 -0.053424038 0.13470869 -0.14597107 -0.08483088 -0.0753683 0.15022305 0.097046465 -0.13333793 0.11587514 -0.014569292 -0.07117505 -0.030961331 0.038036417 -0.06626176 -0.045777258 0.12977266 0.19560899 -0.030587684 0.0965087 0.013707511 0.13010252 -0.16216157 -0.22914831 -0.013585598 0.03096674 -0.03614776 0.08108146 -0.03264665 0.013747646 -0.05819281 -0.039827865 0.27218223 -0.1258644 -0.114221774 0.036207624 0.007703887 -0.096460946 0.057754606 -0.06666801 0.035766516 -0.16732828 0.13715205 -0.06472506 0.04596359 -0.14831553 -0.13496108 -0.019122902 -0.032095484 0.008462477 0.021623632 -0.09301107 0.01743831 0.042534094 -0.20297566 -0.16139077 -0.003915176 -0.023736525 -0.077489704 -0.078196526 -0.0192157 0.11096063 0.08353895 -0.026510118 0.06276268 -0.096656255 0.04711835 0.12868473 0.01875693 -0.046175588 0.16711867 -0.031018976 -0.066682726 -0.045268036 0.052283164 -0.0032364363 0.02549866 0.07547477 -0.109167546 -0.15746003
there 0.2679901 0.118977875 -0.038557116 0.1707479 -0.04070114 0.16162759 0.04117134 0.15844662 -0.13419166 0.002135248 -0.09556588 -0.11310812 -0.012329008 0.075793885 0.0013473323 0.131145 -0.16199136 0.09786321 -0.036782272 0.027265921 -0.009760325 -0.029184962 0.039672736 0.09883523 0.03788323 0.109345034 -0.115699366 -0.0059574526 -0.029492298 -0.0503165 0.12252162 -0.11419178 0.09401734 -0.07536953 0.09126628 -0.042410165 0.04452861 -0.068963386 -0.11412945 -0.0177024 -0.2612375 0.04960614 -0.086055644 0.1620842 -0.046487715 0.10290981 0.007361949 -0.1701014 0.07592396 0.021840438 -0.018099917 -0.07414077 -0.11125938 0.016957898 0.17017591 -0.15975922 -0.11624742 -0.017834486 0.017288018 0.09438007 0.076260075 0.12157761 -0.05436241 0.047325045 -0.22603637 0.041611787 -0.14085215 0.052640747 0.057064537 0.17312576 -0.112005204 -0.0834094 0.024927089 -0.014233161 -0.073196106 0.16820933 0.03925908 0.051078986 -0.06994146 -0.04544993 -0.010949867 -0.08296914 -0.18516332 -0.122975186 -0.052651368 0.11931955 0.10712257 -0.09795912 -0.0056080576 -0.1317323 0.08043245 0.05977805 -0.046740364 0.071086 0.12909845 -0.100713894 -0.06403877 -0.056473803 -0.028613139 -0.024041444
them 0.053808287 -0.032036096 0.021191232 0.09275503 0.034669075 -0.038211886 -0.08390961 0.07898054 -0.22956142 -0.18831979 0.2248745 -0.123302914 -0.080714665 0.08908409 0.13834466 0.005084941 -0.18468188 -0.07549438 0.010307488 0.020083474 0.0062610065 0.07979032 -0.031693216 -0.051759705 0.074696094 0.19695172 -0.019380452 -0.09689204 0.014747347 0.03721069 -0.04478627 -0.0615512 -0.09689745 -0.071128316 0.109712966 -0.04305079 -0.0180013 -0.010137598 -0.040250774 0.07531506 -0.09926998 -0.008645128 -0.10442256 0.021901058 0.026734294 0.040223703 -0.0580979 0.048864696 0.08242553 -0.08344186 -0.109287836 -0.07148047 0.06470657 -0.07569655 0.02921715 0.044262063 -0.06883782 0.08635034 0.26022068 0.07370138 -0.03160728 0.08302466 0.13378209 0.038840123 -0.093127646 -0.14678009 -0.059719425 0.19265422 0.022239026 0.07934006 -0.08353326 0.034166038 -0.19032861 -0.046165068 -0.11967197 0.024177846 -0.02061246 0.15074368 0.046228267 -0.19519989 -0.032946434 0.022156214 -0.09628029 -0.05248761 0.011993499 -0.013272609 0.073964044 -0.19879398 0.17583768 0.070071116 -0.16711406 0.07524087 -0.04329239 0.19086723 0.13178904 0.11677307 -0.03674327 -0.124600284 -0.10393734 -0.14883877
when -0.05645594 -0.05653618 0.023301786 0.15097558 0.055164773 0.12250801 0.111876726 -0.05269169 0.032383878 0.10162716 -0.07614862 -0.068551786 0.1360423 0.04305779 0.10269868 -0.009242708 -0.012519395 0.15570015 -0.029281737 -0.024904469 0.08960384 0.0015596662 0.22958116 -0.09484202 0.17636886 0.053428084 0.10841043 -0.0405453 -0.081138626 0.025266703 0.10897897 0.10233662 0.22463606 0.16004072 -0.06822704 -0.1109204 -0.036370423 -0.09176536 0.12070366 0.0780523 -0.03835597 -0.07693934 0.08218244 0.02133715 -0.16152756 -0.14628963 0.1463154 -0.13046432 0.009942599 0.0012969156 0.19506855 -0.0018818479 -0.095957845 -0.102643274 0.083928995 0.004512278 0.039039306 -0.056059707 -0.062355373 0.07814683 0.082880594 -0.06784507 -0.041095637 -0.11316235 -0.23003526 -0.13597618 -0.14048609 0.019523468 -0.113640524 0.12412541 -0.007930758 -0.18589015 -0.022501206 0.102722384 -0.12920275 -0.033468388 0.12192439 -0.02392062 0.03932743 -0.0035890436 0.11311672 -0.06168162 0.029618952 -0.11477576 -0.0030815038 0.025040923 0.00696611 -0.158083 -0.0007703679 0.0026279408 0.16853087 -0.06377511 0.025160907 0.036131024 6.888363e-05 -0.06920386 0.015457349 0.011313562 0.21537903 -0.19839029
did -0.010351384 -0.17936727 0.042689264 -0.06510979 0.02255508 -0.031140765 -0.11522874 -0.20364434 0.11776075 -0.040900543 0.07760634 -0.08323495 0.07555752 0.0096167335 0.0062119034 -0.050837416 0.10482476 0.13215056 0.119567044 0.0905967 0.035765264 -0.09158778 0.18777637 -0.22623593 0.030685036 0.03222903 0.04553206 0.121412866 -0.17808056 0.04658037 0.066479765 0.04572997 0.13519359 0.09244294 -0.011000024 0.010188496 0.041527383 -0.059647378 -0.0037829618 0.0076219346 0.09099049 -0.064336434 0.119652174 -0.06199669 0.023504844 0.024557833 -0.026743025 0.14095694 -0.12649955 -0.04054687 0.0960669 0.027941914 0.11636911 -0.10198551 -0.1182951 0.13002484 -0.068628736 0.11287065 0.1893437 -0.042599656 0.10047888 -0.10781426 0.056187492 0.023771958 0.13896845 -0.03791232 -0.17191198 -0.01588756 0.00232173 0.060524657 -0.2034265 0.09916549 -0.16328073 0.08902802 0.08550415 0.12784831 -0.02419437 -0.07033335 0.029496456 0.05387819 0.020157162 0.0055384194 -0.045023356 0.036006283 -0.09207657 -0.06486108 0.027227536 -0.22457606 -0.005839062 0.088224925 0.08573803 -0.010507345 -0.13145845 0.07226805 -0.056801025 -0.114661105 -0.1661671 0.10245754 -0.092644334 -0.27023396
been 0.058200248 -0.15707022 -0.034558427 0.011657128 0.017177513 -0.039777737 0.027891688 0.012452184 0.15532522 -0.02597083 0.11742836 0.044131234 -0.06498728 -0.06920099 0.14662968 -0.015097488 -0.13955206 -0.0075835646 0.1643622 0.06271997 0.06477612 -0.006681697 0.032639306 -0.023733946 0.06054051 0.056275163 0.11912954 0.06346193 -0.14193988 0.06896453 0.09714393 -0.012076107 0.15214998 -0.0014168135 0.09941548 -0.22307369 -0.08636157 -0.14228061 0.11584495 -0.0230728 -0.047868785 -0.16496192 -0.050857253 -0.14771743 0.042923406 -0.15281257 0.1036795 0.009732468 0.07064764 0.10619378 -0.017509062 -0.16902275 -0.028660573 0.05499964 0.1973726 0.023249058 -0.029550452 0.098764375 -0.09304838 0.091423474 -0.01035554 0.08777863 0.045907207 -0.036137916 -0.14733529 -0.0031227455 0.010787849 0.13916582 -0.13840531 0.21430299 0.09719182 -0.02142249 0.11021112 -0.19615182 -0.0052262414 -0.08208537 0.0015628856 0.022216437 -0.03947247 -0.22784667 0.059620526 -0.15996133 -0.22148222 0.13187529 0.07055843 0.1290125 0.12209499 -0.045918107 -0.03902799 -0.03592672 -0.05938378 -0.110034995 0.04439007 -0.06566268 -0.014979283 -0.07926739 0.11945525 -0.016025452 0.11176001 -0.13731623
their 0.03608166 -0.19005635 0.043626063 0.04415918 -0.070027746 -0.059523076 -0.03072342 0.13433963 -0.10448252 -0.10742417 0.05371127 0.07573007 -0.09675882 0.124332 0.14028923 0.039250277 -0.104310445 0.040379312 0.048044235 0.1791406 -0.09409884 0.04637842 -0.06596951 0.059296135 0.0540657 0.05500367 -0.008407153 -0.07334474 0.0035056162 0.054488637 0.053417653 -0.03427004 -0.08957294 -0.11455807 0.1232922 0.029328572 0.079705596 -0.06377357 -0.10618793 0.10225464 -0.03761491 0.008424266 -0.167759 0.020598376 0.03239356 0.07424272 -0.2149197 0.1383491 0.038314737 -0.07704056 -0.057134442 -0.04732283 0.08768959 -0.13558131 0.008737647 0.093910925 -0.041723862 -0.035933733 0.23568906 0.010884586 -0.036423948 0.12080906 0.10120311 0.0008418134 -0.033260375 -0.086836174 -0.026924275 0.16196895 0.050833445 -0.09195403 0.1429876 0.06310326 -0.21541153 -0.026584884 0.021960413 -0.05092258 -0.1155407 0.18343657 0.054669473 -0.11948082 0.055672847 -0.118663594 0.022484805 -0.049193498 0.044581667 -0.029972915 0.18378402 -0.115201145 0.12524478 0.088671446 -0.26155505 0.09392946 -0.004666465 0.037836723 0.18059477 0.12638107 0.10412563 -0.18941188 -0.022853777 -0.110934444
would 0.1831502 -0.1445244 0.020237256 -0.0045100865 0.035532605 -0.060997736 -0.102117404 -0.13673168 0.0681454 -0.0953937 0.14029047 -0.074447826 -0.0031611717 0.03059828 0.12172869 -0.1437707 0.022522872 0.094599426 0.1901121 0.006908125 0.09208731 -0.1086538 0.06502611 -0.09587572 0.027875109 -0.04543423 0.016340213 -0.046984408 -0.12251086 -0.0503258 -0.090596095 0.08124035 0.10495633 0.031141652 0.07700462 -0.17533925 -0.14669433 -0.25120667 0.03163234 -0.008111353 0.04146811 -0.1814681 0.14782552 -0.049114484 0.040432665 -0.06389007 -0.01962053 -0.026610425 0.07339495 0.088446714 -0.025330838 -0.16079803 0.10965429 -0.024625337 0.10486023 0.042349897 -0.015416156 0.12789841 0.1589161 0.05272016 -0.04177889 -0.06961597 0.08310232 0.028320208 -0.030750193 0.09855055 -0.03108679 0.11159469 -0.1387727 0.14911707 -0.047712114 -0.046297453 0.059089385 -0.09764372 0.09842797 0.18913089 0.021640405 -0.04099598 0.0024835314 0.0043657087 -0.04641785 -0.09287581 -0.27487785 0.10200378 -0.0037389665 -0.03524542 0.13069224 -0.24063897 0.07578257 0.03246783 -0.063846804 -0.021613823 -0.023529623 0.17285977 0.00132383 -0.034990665 -0.04012723 0.113446556 -0.06917993 -0.1690498
now 0.15922685 0.3023006 0.06520897 0.09184678 -0.014493541 0.15998034 0.039001074 0.04817942 -0.03954863 0.0031178277 -0.104891315 -0.10250092 0.024190838 0.07156964 0.033189237 0.0652791 -0.02601786 0.08537883 -0.002591444 -0.09009877 0.0012077957 -0.025083924 0.11856301 -0.06743834 -0.028541828 -0.1116545 0.09386958 -0.029144306 -0.10423073 -0.024025144 -0.044685036 0.0039694905 0.1695726 -0.07044345 0.22145152 -0.06832696 0.0026844044 -0.013189008 -0.040241454 0.10940907 -0.18160328 -0.031696506 -0.08328403 -0.052784517 -0.02188416 0.021776505 0.049081337 -0.15385768 0.16086894 0.107338816 0.020812517 -0.15444133 -0.07287404 -0.010846169 0.16298798 -0.09607375 -0.06118891 -0.03633197 0.024995172 0.007569875 -0.027710542 -0.07532331 0.044463802 -0.024783172 -0.19768097 -0.09479366 -0.04837624 0.074352555 -0.07664824 0.14243692 0.0039987285 -0.25458714 0.11537478 -0.103608094 -0.2022104 0.04379605 0.12031668 0.0145307565 -0.16597717 0.029136302 -0.07998656 -0.082359225 -0.22728765 -0.009447709 0.009429358 -0.005574556 0.05572465 -0.056234386 0.16132763 -0.036496535 0.075400636 0.009364984 -0.0031416875 0.15377276 0.1687541 -0.07200945 0.01591742 0.15072405 -0.060545336 0.012494718
onli 0.13017853 0.09165864 -0.0026321085 0.13098508 -0.11784926 0.067304194 -0.06959566 -0.033128798 -0.08330817 0.05906834 0.06718229 0.024615835 0.12604514 -0.029373456 0.08060482 0.029362358 -0.17462753 0.05478164 0.07842384 0.09896767 -0.018408587 -0.041391384 0.061275057 -0.07855333 0.06895755 0.046024702 -0.03569608 -0.04571218 -0.059847046 -0.009672807 0.07189303 -0.07121664 0.23262934 0.108109795 0.17942874 -0.022347966 0.059644666 -0.060882017 -0.11641098 0.01887764 -0.1269926 0.044534124 0.052633394 0.06625455 -0.15721837 0.02386577 -0.017970027 0.1046847 -0.05739746 0.03148405 0.018931461 -0.10414315 -0.06869006 -0.0834412 0.20418 0.013076136 -0.019201115 0.1751185 0.1867154 -0.049640693 -0.04199218 -0.028969318 0.06817121 0.024108976 -0.093288116 0.04846674 -0.06364389 0.07290403 -0.055651814 0.15907386 -0.17463593 0.04449976 -0.01955723 -0.028294815 -0.011733832 0.22732681 -0.12189685 -0.056139145 -0.056146994 0.0106973965 -0.000344552 -0.058734804 -0.17610331 0.0074919406 -0.11830559 -0.01269253 0.003985321 -0.27784044 0.12663357 0.1246109 -0.043922644 0.09262016 -0.14107339 0.15783419 0.14390503 -0.15562524 -0.13616565 0.13275164 -0.02326717 -0.17660213
are 0.25990504 -0.08672676 -0.01550011 -0.035509534 0.055391423 0.018735643 -0.05729779 0.11972281 -0.16371976 -0.13088858 -0.13051417 -0.10741053 -0.095978744 0.048763275 -0.11515602 0.07869174 -0.012137773 0.10608568 0.112469785 -0.0017411179 -0.10550441 -0.16966568 -0.051196173 0.046653274 -0.0139867645 0.066195466 -0.10840217 0.07516892 -0.1041265 -0.088125624 -0.11526699 0.008818472 -0.09551488 -0.146123 -0.077228546 0.02612808 -0.007705573 -0.07166365 -0.14965692 -0.0346905 0.016411947 0.0120373415 0.020478858 0.16260898 0.09183691 0.14281234 0.06530463 0.014492612 0.045668792 0.10659209 -0.11890475 -0.0948347 0.08622628 -0.045105677 0.02848545 -0.010552012 -0.20681937 0.07895743 0.06744252 -0.09971222 0.1132048 0.059872113 -0.04248714 0.08679747 -0.06504566 0.11242088 -0.06530266 -0.06733325 0.041847613 0.015286346 -0.09220597 0.018136285 0.07116205 -0.15876022 0.21764249 0.22179215 -0.07658379 0.1127992 -0.036937572 0.03018388 0.037778415 -0.0047211233 -0.18869528 0.08081413 -0.09246825 -0.013331816 0.09616554 -0.095044054 -0.09634113 -0.08304021 0.114853054 0.021379711 0.077895425 0.24106763 0.045578852 -0.0069324533 -0.12226051 -0.0050013084 -0.21784706 -0.008859823
out 0.02127284 0.02694832 0.16870275 0.06323938 0.064861715 0.032104626 -0.05914761 0.0797978 -0.086920016 -0.17755502 0.017822519 -0.24183522 -0.15443273 0.11812693 -0.08326726 0.019453315 -0.21515438 0.08339673 -0.084964424 0.02705078 0.048194144 -0.031209182 0.07707029 -0.00062878925 0.06269074 0.16659465 0.18540157 -0.096095845 0.06541183 0.04775745 -0.065659724 0.023646398 -0.046257205 -0.0036871796 0.059659503 -0.10155652 0.055034082 0.08121104 0.13328713 0.07486798 0.015523692 -0.04142986 -0.1764766 -0.013870738 0.022401711 -0.19835657 0.17638914 -0.18098927 0.15950431 -0.053905178 0.035134483 -0.005998156 0.080384515 -0.030702574 -0.07496422 0.0067244624 0.03078214 -0.06910706 0.08783252 0.06699839 0.1310111 0.1079197 -0.06387284 -0.032075834 -0.04782742 -0.22414325 0.012835638 0.08494755 0.07622697 0.03401314 0.038850453 -0.112493426 -0.1846769 0.18041913 -0.1643694 -0.14518973 0.06423135 0.1765432 0.07265411 -0.039958317 0.067950934 0.020812126 0.038697295 -0.13056459 0.03140061 -0.035121802 0.012138409 -0.061069842 0.02153103 -0.038838185 -0.057926677 -0.028837595 0.02176168 0.0002630582 -0.05081224 0.15836075 -0.04463853 -0.24160011 -0.013522888 0.08969706
natásha -0.1018299 0.21867155 0.062999904 -0.045591164 0.047854215 -0.038218863 -0.0818432 -0.14477013 0.021272065 -0.045816444 -0.009925797 0.030292379 0.05500394 0.031010345 0.13947645 -0.011043458 0.06714235 0.031751834 -0.04085233 -0.053560164 -0.049295485 0.037848856 0.18686163 -0.15266807 -0.14976148 0.06696145 0.0396978 -0.047677986 -0.078614645 0.13070023 -0.061495103 0.07642871 0.06211711 0.14997005 0.0702921 -0.08547054 -0.046053275 0.17222422 -0.12929145 0.074793056 0.052488357 0.1296357 0.009427406 -0.11567054 -0.19812194 -0.17613307 0.025679622 -0.15485296 0.10532529 -0.042859994 -0.030268267 -0.07573751 0.11203415 -0.13843393 0.0050522815 -0.09610473 0.035517123 0.030416787 0.06355034 0.09350119 0.08900855 -0.17057873 0.06089228 -0.03338021 -0.056851566 -0.0735136 -0.014797178 -0.07330791 -0.09866171 0.1404966 -0.08734022 -0.25489232 -0.070595875 -0.00034930182 -0.1416984 -0.025533956 -0.007383423 0.07723616 0.005767119 -0.058109105 0.03173018 0.22871989 -0.07985139 -0.16987266 0.055923373 -0.107770436 0.012443477 0.08088966 0.16205096 0.05144036 0.1544434 -0.005177572 -0.118882634 -0.046795655 0.052013226 -0.16424648 -0.07186373 -0.00095704576 0.16628584 -0.10194757
man 0.0116281 0.07949185 -0.122175656 -0.117509626 -0.01542858 -0.009887844 -0.038033556 0.014318816 -0.026121434 0.13849013 -0.07668808 0.2225931 0.023878172 -0.11225129 0.001304343 -0.067223415 0.01732212 -0.12707183 0.13040024 0.0920729 0.035103627 -0.11404153 0.0050075133 0.032112714 -0.1358739 -0.08048821 0.03069858 0.1614836 0.0040655937 0.029157655 0.15910418 -0.18042436 -0.13054706 0.047244955 0.1500152 0.040900674 0.14004715 0.06551586 -0.15558305 0.032627817 -0.03468398 0.15011449 -0.10996787 -0.18833013 -0.10922775 0.05239247 -0.037195664 0.13289069 0.011847866 0.018169183 -0.07182362 -0.047072083 0.07667681 0.044037312 0.08364772 0.014166636 -0.051597476 0.0042763585 -0.037258536 -0.3254625 -0.14345211 -0.12667137 0.0541798 0.033250142 0.038867228 0.122141995 0.033970945 -0.06693117 -0.120007776 0.045652043 -0.098600835 0.12526967 0.14417787 -0.20233148 0.009966232 -0.050085943 -0.13262567 0.17249829 0.07938681 0.08175866 -0.043851744 -0.0015459758 -0.10218763 0.19667967 -0.014191726 -0.1261068 -0.04665501 0.1256133 -0.065030545 0.09202492 0.008654701 0.0221486 0.025963714 -0.10054213 0.08548249 -0.10817802 -0.045908626 0.07765005 -0.0746522 0.015915524
andrew -0.06576681 0.22347867 0.12329619 -0.08734222 0.006615626 -0.13829261 -0.030933753 -0.015227858 0.18817583 -0.097125314 0.03104764 -0.13721105 0.14808416 0.07848841 0.096593685 -0.12158031 0.13209791 0.08434456 0.015303107 -0.06640695 -0.13258392 0.0118650375 -0.09288361 -0.108533524 0.1529993 -0.008103123 0.21178173 -0.1502248 -0.16071104 -0.0885163 0.080837704 0.040205143 -0.10757119 -0.022248173 -0.060966372 0.068289444 -0.02013475 -0.046769835 -0.023544785 -0.114820264 -0.04049485 0.17330803 0.10940998 -0.12838054 -0.0818788 -0.09979054 -0.07143885 0.0017893256 -0.14950594 0.07585024 0.08194733 -0.054599937 -0.11498739 0.024241608 -0.11059277 -0.101927735 0.13858356 -0.009977809 -0.028187757 0.12127822 0.12223599 0.05445242 0.06631987 -0.0573457 -0.08098446 -0.19911243 -0.1711763 -0.097102076 -0.10430757 0.13648605 0.16139497 0.03331656 -0.028355647 0.16282007 0.09756508 0.016489882 -0.11076875 -0.024696782 -0.09946517 -0.07032315 0.09088732 -0.015907 -0.058562096 -0.15552911 0.052337203 0.06374394 -0.04796537 -0.038308594 0.010325268 0.089229666 -0.0053421236 -0.030699609 -0.015719788 0.048209492 -0.005483199 0.020809023 -0.0319264 -0.22413531 0.111573055 -0.05876013
could 0.04939335 -0.14930259 0.03386819 -0.06368727 0.0134380935 -0.070418105 -0.1232936 -0.16155304 0.10521372 -0.06290337 0.20843706 -0.024160547 0.005759639 0.021599196 0.046450373 -0.036074497 0.04057413 0.16135947 0.16127092 0.08710747 0.048309866 -0.12783273 0.21089175 -0.17997885 0.051248427 0.044904277 0.059968214 0.054600306 -0.15243399 0.057313364 0.042127028 0.03253424 0.16257669 0.017787848 0.17139111 -0.117702864 0.0037120478 -0.12532054 0.047391213 0.019386131 0.029361995 -0.15146445 0.084865496 -0.08195441 0.03288354 0.035616603 -0.122573696 0.11748233 -0.06816733 -0.041863054 0.04824231 -0.039936557 0.10203893 -0.060748037 -0.021209663 0.09551511 -0.027922645 0.100525394 0.25121787 0.049710587 0.03619792 -0.09321346 0.096302025 0.07185921 0.10173412 -0.0008669344 -0.14675266 0.09010632 -0.036486257 0.091137536 -0.1697717 0.09467316 -0.103879176 0.06599379 0.024988692 0.07693197 0.005101915 -0.08940366 0.03924922 -0.05981721 -0.056232374 -0.047609795 -0.07745033 0.055751737 -0.025923604 -0.05184478 0.13199113 -0.23472092 0.081568375 0.025896996 -0.030427955 -0.0012852906 -0.13412668 0.09027201 0.026927445 -0.06585806 -0.086760074 0.077533826 -0.115745336 -0.3033862
face -0.16428761 0.12659766 0.003772914 -0.21269734 0.042092208 -0.03019576 -0.12351303 0.035396744 0.12579797 0.099225 -0.14220816 -0.034698833 -0.078358866 0.001541852 -0.0046182065 0.07421667 0.050809328 0.05444631 0.08786807 0.08677724 -0.12270784 -0.08770215 0.17525469 -0.09573464 -0.010820995 -0.15078814 0.08297768 -0.012723169 0.027457293 0.070944935 0.08460183 -0.029118618 0.066000395 0.10129124 0.071587466 -0.06089064 0.16857693 0.09159515 -0.053488262 0.051830232 -0.062246405 0.15990846 -0.23537637 -0.19149928 -0.08285602 -0.03517365 -0.084182896 0.12108091 -0.069394685 -0.04307507 -0.026708119 0.01839651 0.22770154 -0.005029493 -0.0372962 0.018701022 0.08291284 -0.18929806 0.14010176 -0.023748757 -0.094388194 -0.15901588 0.14849015 -0.012872399 0.12558584 -0.031875547 -0.030482134 -0.046939492 0.0065453784 -0.022890814 0.09177187 -0.07088975 -0.019275412 0.1419735 -0.26760846 -0.17147397 -0.003492873 -0.06378291 -0.039538186 0.08727252 -0.023450824 0.058987316 0.11949255 -0.08625568 0.043429643 -0.110397436 0.049696747 0.1453218 0.03747683 0.0582693 0.12255109 0.04463082 -0.12595469 -0.14300321 0.12288466 0.010227552 0.037379857 0.0377911 0.008008467 -0.021371635
will 0.22874975 -0.08084724 0.06789274 0.018041166 0.049403027 -0.0026865078 -0.14389151 0.015715325 -0.13745251 -0.12342713 -0.032039028 -0.13601297 -0.04316959 -0.022494474 -0.07324976 -0.030680118 -0.084072284 -0.022940863 0.14035223 -0.014064988 -0.082849585 -0.15950303 -0.09962451 0.018234411 -0.021001084 -0.034240775 -0.10368141 -0.041674066 -0.042582024 -0.14179194 -0.1944273 0.052079957 -0.028345978 0.038148243 -0.030950667 -0.018806731 0.006258426 -0.19307484 -0.115285695 -0.036166538 0.05723915 -0.020540232 0.10839944 0.10829329 0.016344892 0.08349312 0.06822283 0.08027949 0.03335304 0.19161898 -0.098400064 -0.14310136 0.09318987 -0.0040665716 0.07280285 0.006867231 -0.06567132 0.18362866 0.09802966 -0.086509466 -0.03823944 0.0032821323 -0.052471127 0.026364636 -0.004903603 0.1413191 0.045633864 -0.03623497 -0.0014347474 0.0039455635 -0.030366795 0.009273476 0.06698688 -0.15214975 0.19455291 0.23713727 -0.08494969 -0.03622748 -0.013926756 0.10812068 0.030779101 -0.0372511 -0.26023644 0.12556776 -0.14327787 -0.05218528 -0.010628106 -0.19715096 0.047860075 0.025849434 -0.0032509943 0.061275814 0.008526123 0.2999247 -0.020986153 -0.0059180353 -0.18523833 0.07346037 -0.091553524 0.029531252
time 0.10644785 -0.059709597 0.050525926 -0.09668844 0.117380135 -0.06818242 -0.13734917 0.10762624 0.24198563 0.01827448 -0.037968375 0.072266914 -0.012615842 0.123379335 0.15530589 -0.13161452 -0.18796958 0.13059695 0.13211282 0.23684153 0.0010328449 0.108720526 -0.049807496 0.071728565 0.05364972 0.014179541 0.062646165 -0.075187124 -0.035772324 0.12096939 0.12088227 0.116208464 0.20947339 0.13877411 0.031425886 -0.14180166 0.028964108 -0.107432164 -0.10191999 0.09011029 -0.11938561 -0.0048290687 0.10695951 -0.22547844 -0.13851586 -0.026932947 -0.02753053 -0.03930413 -0.019494742 -0.124071665 0.029520169 -0.075672396 -0.020360513 -0.05698705 0.24395888 -0.10281878 0.026322033 -0.07146499 0.036438048 0.12235621 0.051492676 -0.0046195844 0.047095347 -0.05034961 -0.120781206 0.06740915 0.09463269 -0.09642211 -0.11805718 0.16475485 0.083896756 0.0499541 -0.07884664 -0.07668289 0.06659104 -0.005269096 0.0541184 -0.10064522 -0.02347225 -0.11941198 -0.019501546 -0.014825153 -0.15319237 0.049884707 -0.020141184 0.12738755 0.058458008 0.028397342 0.02056084 0.019894106 -0.03524735 0.10638786 0.052197948 -0.16293755 -0.05541495 -0.12914881 0.080019265 0.06897498 0.061364073 -0.056291226
more -0.08506082 0.0023961356 -0.025048265 -0.015640575 0.23114772 0.10475844 -0.1478236 0.038382974 -0.04976587 0.16473994 -0.117655456 -0.09526983 0.09897856 -0.022834547 0.104378365 0.018552126 0.084764324 -0.1071936 0.18520463 -0.008281542 -0.047017727 -0.12532666 0.10599437 0.01972452 0.0021892963 -0.18082337 -0.107824355 -0.1112123 -0.12420856 -0.08041826 0.15680847 -0.13866706 -0.09204699 -0.058008343 0.10708909 0.035199147 -0.07372729 -0.18556684 0.04927461 -0.057066627 -0.19232555 0.094094686 -0.028224146 0.090658 -0.09594156 0.22767262 -0.0073226504 -0.010252466 0.042895194 0.067476645 0.01949913 -0.044511735 0.025355795 0.17780685 0.086169526 -0.03572975 0.018259555 0.13400556 -0.083853304 -0.006955035 -0.15998861 0.0693799 -0.101382464 0.027452225 0.021276195 -0.09296337 -0.08252133 -0.13722268 0.076813415 -0.017148804 0.04141447 -0.11988861 0.0735492 0.015166731 -0.23076232 -0.03427305 0.03895923 -0.11395281 0.04225068 -0.0021076715 -0.06418788 -0.111071 -0.033670787 -0.15481706 -0.105681695 -0.011540604 0.022841468 0.06380701 0.062102124 -0.00403802 0.17186467 -0.045318116 -0.09136049 0.12812482 -0.016929608 0.11045924 0.06375412 0.10701788 0.06159958 -0.1988254
himself -0.16257297 0.048868 -0.009837397 0.016295055 -0.02440077 -0.021386065 -0.019598976 -0.1312801 0.05974347 0.091139644 0.0430287 0.06670153 0.15553007 -0.04324505 0.16923653 -0.08058886 0.11051654 -0.114095815 0.12290018 0.00022939735 0.08248013 0.07593759 0.044355363 -0.20721588 0.031806707 -0.12887652 0.086592704 0.018040806 -0.1005012 -0.015154624 0.15719137 0.01764797 0.0022294214 0.16720276 0.14512627 0.098611146 0.0028556997 -0.04865016 -0.022768253 -0.016684614 -0.096381515 0.0573326 0.0052189906 -0.21101119 -0.10875176 -0.06533183 -0.0844147 0.21026447 -0.12423053 0.09852518 0.08012543 -0.011777575 -0.011679395 -0.007517057 0.036263816 0.065779075 0.07929548 0.059415292 0.036731906 -0.13788618 -0.095323615 -0.055006806 0.17832826 -0.0722565 -0.04068297 -0.25336936 0.028205747 0.098832615 -0.2106615 0.12650156 0.08451687 -0.025738718 -0.16231892 -0.09747574 -0.05232456 -0.06740404 -0.054082304 0.049153216 -0.054056153 0.07121715 0.02336864 -0.15381357 -0.048352316 0.15124424 -4.743804e-05 -0.081355564 -0.024915667 -0.05899619 0.01439998 0.23910768 -0.23692359 -0.05576126 -0.080262385 0.04756669 0.00812069 -0.038585808 0.057186827 0.038629983 0.11784679 -0.064072326
know 0.13235554 0.10644804 0.05094528 0.034977026 0.04036562 -0.018222032 -0.04731095 -0.0934478 -0.06668542 -0.11165392 -0.04073285 -0.11358724 0.050051242 0.011439534 0.033471927 -0.0044765873 0.023593307 0.0829113 -0.020501727 -0.062182542 -0.010468241 -0.07250649 0.073392004 -0.1177044 -0.07352355 0.057411734 -0.071650065 0.084856175 -0.12627445 -0.104098804 -0.06678663 0.024403052 0.05248635 0.15561013 -0.17695644 -0.019769985 -0.018520031 0.08256059 -0.11729853 -0.036799047 0.056263056 0.058844335 0.080867544 0.045919813 -0.0485818 -0.06036005 0.1355619 0.071472436 -0.08793962 0.1542363 -0.08290052 -0.1053801 0.08093761 -0.17200282 0.10156917 0.005021914 -0.07520966 0.1485747 0.034437895 -0.1679934 0.05069414 -0.07744784 0.034863155 0.032123733 -0.10798638 0.07422203 -0.072213255 -0.026902027 -0.06829725 0.14511865 -0.2377385 -0.06135725 0.09741671 -0.047784667 0.11625769 0.27072132 -0.10282903 -0.03538588 -0.1362762 0.016979614 0.12056533 0.054993246 -0.14982624 0.13521683 -0.065840624 -0.0006576412 -0.03142236 -0.19598384 -0.042834155 0.05278229 0.1630871 -0.011598904 0.017714571 0.25258172 0.01627537 -0.011653033 -0.19860803 0.15315044 -0.121975936 -0.16204397
about 0.1056663 0.06937661 -0.0620278 0.11467304 0.09872781 0.07097366 0.005100388 0.09226502 -0.02843958 -0.056377284 -0.21075238 -0.19331917 -0.02090642 0.20093036 0.03495501 -0.064121306 0.07997964 0.12040458 -0.10346827 0.03312462 0.04958641 0.030895408 0.037615623 -0.20406951 0.055067636 0.00569303 -0.07789747 -0.043024708 -0.07395272 0.04383118 0.042684656 0.013624337 -0.081698574 0.052116137 -0.2544515 0.056603923 -0.08211437 0.042087737 -0.045228876 -0.03226978 -0.0480473 0.07247166 0.09889154 0.034363113 -0.0074872025 -0.0058063203 0.17700003 -0.13730739 -0.028269608 0.037616163 0.10636226 -0.034505326 0.016963098 -0.123610176 -0.053172406 -0.039153155 -0.050013486 -0.09230385 -0.05340462 0.051692147 0.15519303 0.010893787 0.18491782 -0.12170801 -0.2458966 -0.10509251 -0.12356823 -0.04714919 -0.0529015 0.1251363 -0.066247724 -0.18688415 -0.14806092 0.023291396 -0.054656964 0.24860029 0.046420526 0.12781015 -0.03928271 -0.04545984 0.10085398 0.05820212 -0.03990485 -0.15817866 0.0067768944 0.021327872 0.02599561 -0.026510179 -0.16110764 0.06926182 0.1565324 -0.052766606 -0.13438201 0.09621806 -0.08923758 -0.09069176 -0.08483864 -0.009768443 -0.13852854 -0.062345758
how 0.12243242 0.2028371 0.039698366 0.10045006 -0.04753489 -0.021118328 0.09188945 -0.035157647 -0.12567362 -0.11042232 0.053005517 -0.07396092 0.046151828 0.022253314 0.10818767 -0.02854838 -0.11608358 -0.017983863 -0.11423991 -0.042829216 -0.0258487 0.013286813 -0.0046447916 -0.1450712 -0.0052348496 0.017074198 -0.047161143 -0.034222092 -0.024317285 -0.012969127 -0.11036818 -0.024942854 0.053423926 0.09453723 -0.018592484 -0.02860092 -0.0019873984 0.112108916 -0.09754922 0.009563054 0.04689045 0.0637029 0.026755508 0.070450924 -0.09874796 -0.16529296 0.14552888 0.023263283 0.021785013 0.18611036 -0.06963306 -0.15603675 0.047578868 -0.15724425 0.107235774 0.014244141 0.037813332 0.0853424 0.0758954 -0.071671724 -0.024478447 -0.161276 0.1396924 -0.05375604 -0.19695558 -0.021396294 -0.021442842 0.12546302 -0.190168 0.15667258 -0.149908 -0.13431543 0.09028023 -0.061733093 -0.058094516 0.16292076 -0.09703241 0.090316415 -0.06492842 0.015038635 0.09736104 0.11831326 -0.12611629 -0.0370701 0.08558055 -0.04591623 0.02208239 -0.19935508 0.13247018 0.22276753 0.13363823 0.0060923463 -0.04144166 0.17501007 0.12992127 -0.036963053 -0.18219706 0.121115856 0.05746406 -0.15884067
into -0.014665184 -0.011080607 0.17099886 -0.025361534 0.097339965 -0.029874887 -0.11913119 0.0985805 -0.044244032 -0.076446034 -0.04368023 -0.11594916 -0.15821834 0.12357656 -0.025404613 0.036082473 -0.12748024 0.13404201 -0.00086409756 0.032553967 0.076812066 -0.17407897 0.19845249 -0.0023088264 0.05672703 0.1468095 0.19996901 -0.0923268 0.007937082 0.054944288 -0.038445216 0.035954334 -0.045070283 0.024248516 0.17430072 -0.15995072 0.06182389 0.026335455 0.19769444 0.045659706 0.005388774 -0.043347094 -0.16840002 -0.044883728 -0.020167373 -0.1284057 0.085443825 -0.13509077 0.16915888 -0.12518212 0.07080667 0.016611423 0.043192767 -0.0068728235 -0.014258875 -0.062893435 0.056454375 -0.08983399 0.13739371 0.056448665 0.15396711 0.090392224 -0.10312271 -0.0036822855 0.07579148 -0.10630433 -0.018856619 0.03232438 0.11689389 -0.06075612 0.045310065 -0.059357785 -0.21473937 0.1562614 -0.13541655 -0.21498698 0.038009986 0.14373797 0.145274 -0.031143038 0.045717724 -0.04911044 0.13326675 -0.08896646 -0.0016094932 -0.086623244 0.050987087 0.0033812819 0.0022495892 -0.12225122 -0.07703916 -0.028425854 0.012995797 -0.09129006 -0.0135529665 0.13403629 0.019844564 -0.23896861 0.026787546 0.045833126
say 0.10073731 0.26421937 -0.0083951475 0.13149576 -0.0038107163 0.056797072 -0.0033994284 0.019438636 -0.110264726 -0.056527134 -0.08685438 -0.15709615 0.107808225 0.06167849 0.001811547 0.030226786 0.09388886 0.09467312 -0.060448516 -0.043424398 -0.0019928925 -0.06970411 0.117540225 -0.18611714 0.0143501945 -0.026586594 -0.030791875 0.019037984 -0.09686339 -0.07436744 -0.03496634 -0.12889065 0.033199895 0.061351035 -0.13996446 0.024456713 0.0038221637 0.11982428 -0.057223145 -0.05568891 -0.071630575 0.12419839 0.038479593 0.085201934 -0.08169578 0.038613804 0.027349055 0.036583804 -0.1264077 0.07135626 -0.03254469 -0.07789296 0.054223727 -0.18108585 0.08057523 -0.025247157 -0.027594224 0.058873236 -0.0015524348 -0.035896953 -0.036489766 -0.059007682 0.15190792 0.06442212 -0.17992811 -0.0005147863 -0.15744624 -0.012592082 -0.037648506 0.13143992 -0.17739029 -0.16291633 0.14268468 0.002476288 -0.062424373 0.2559387 0.025735023 -0.048889536 -0.13498794 -0.019067302 0.06575224 0.03702154 -0.10611122 -0.052301567 -0.1096951 -0.0042170226 -0.036751356 -0.1676333 -0.027169574 0.028532619 0.16977485 0.013644478 -0.07535765 0.26554462 0.120311774 -0.011266545 -0.12332892 0.11319255 -0.17415737 -0.20789988
ask 0.10000632 0.058495328 0.026125204 0.038430974 0.1716037 -0.009558609 0.060638964 -0.00751221 0.022804808 -0.20132227 -0.07748307 -0.26242483 -0.08220331 0.08261687 -0.026030004 -0.034935486 0.04597212 0.10709838 -0.09426648 -0.04024803 0.047367048 -0.025557542 0.06638881 -0.14168909 -0.08380857 0.08724287 0.049768753 0.12663877 -0.11123668 0.0026294717 -0.10016368 0.03545396 -0.04124665 0.13580169 -0.33183345 -0.077538446 0.0049791276 0.13445678 0.039351955 0.03212444 0.16581683 0.023760375 0.068328135 -0.046053 0.0585496 -0.092555955 0.23821613 -0.01638028 -0.003769591 0.12824361 -0.039274532 -0.0669225 0.19324061 -0.17955959 -0.04698486 0.049351756 -0.038149998 0.023046182 -0.05642662 -0.08903832 0.12478981 -0.055214077 0.030308709 -0.06306943 -0.12764333 -0.0243766 -0.10138811 -0.010221738 -0.10497582 0.11339795 -0.12483696 -0.12206143 0.12869996 -0.02893412 0.05580237 0.09181018 0.06202417 0.029093448 -0.05700461 -0.08970023 0.14323404 0.10834752 -0.058758598 0.101353 -0.0018954678 0.042035565 0.008455966 -0.06297982 -0.13997863 -0.050306417 0.19288115 -0.07217235 0.047762234 0.12516552 -0.1123775 -0.0038808486 -0.13057257 0.0634516 -0.115467876 -0.09708459
then 0.124235526 0.30327258 0.113112316 0.099965595 0.10443909 0.12373884 -0.08751004 0.1421997 -0.15368733 -0.1319728 -0.08960694 -0.20240796 -0.044047996 0.11035963 -0.07263506 -0.017271312 -0.030321788 0.01260751 -0.032979593 -0.069822684 0.018081209 -0.051255286 0.034241367 -0.058122806 -0.07986983 0.023558695 0.23408963 -0.09225196 -0.06880606 0.025467873 -0.20895977 0.010246683 0.009721424 -0.09062844 0.12335964 -0.0793686 0.021900315 0.075812705 0.06353298 0.14536572 0.021283261 0.029219052 -0.04481111 -0.06967013 -0.032561358 0.042199757 0.13636787 -0.1657169 0.25278234 -0.022419551 0.0019011793 -0.12937254 0.051877756 -0.053539168 0.014759685 -0.048451453 -0.034031678 -0.003730603 0.034529887 0.089815505 0.04378989 0.03261767 -0.088637754 -0.040397365 -0.07494913 -0.15761746 0.0067640664 0.0145058 0.026613075 0.004359474 0.04712837 -0.20212735 0.018250555 -0.09647577 -0.15328863 -0.0700354 0.20896123 0.100635156 -0.02537708 -0.069677375 -0.019602051 0.09651398 -0.18908241 -0.0846148 -0.06910874 -0.041823402 -0.04880663 -0.029195087 0.20477404 -0.03802268 0.073547296 0.02077308 0.01255768 0.17502457 0.006469356 -0.009863311 -0.047235295 -0.042090442 -0.10830757 0.10711751
princess -0.07017811 0.20710598 0.09087028 0.046421662 -0.013896306 -0.11971927 0.0010941027 0.006423013 -0.08853195 -0.048542254 -0.035791438 -0.0426389 0.13619472 0.03880049 0.07477362 -0.094476014 -0.025201673 0.050875794 0.1701056 0.09576887 0.0853842 -0.12141765 0.114155054 -0.13279787 -0.11513749 0.12726629 0.0042408267 -0.16407602 -0.049602028 0.10889343 -0.033675823 0.05836331 -0.05726981 0.10352065 0.05390498 -0.16400807 -0.058218658 0.15541053 0.049854502 -0.09642278 0.12954003 0.15441902 0.15048102 -0.04459207 -0.2163993 -0.07470226 0.06441643 -0.101775 0.10823752 -0.11913049 -0.12994552 -0.07738352 0.07394389 -0.08578644 0.09687812 -0.16744997 0.106641784 0.042811107 -0.012989601 0.115222394 0.044776697 -0.030003535 0.07363751 0.10656791 0.013275976 0.14383806 -0.040538236 -0.1890763 -0.082866676 0.016373843 -0.054402053 -0.05449342 0.12032303 -0.06634634 0.044572163 0.008579097 -0.018600274 0.023520825 0.062128715 -0.075563274 0.07908802 0.12754461 -0.011247553 -0.14978352 -0.11599037 -0.11125423 0.03733955 0.12375646 0.060726285 -0.012323359 0.035095315 -0.01241472 -0.20180106 -0.21143673 0.018366093 -0.16941598 -0.09873085 -0.103967 0.11075473 -0.08070091
rostóv -0.116204016 0.105441526 -0.054595545 -0.0036868437 0.10307653 -0.03653862 0.047396448 0.00844789 0.030523086 0.03934665 -0.0022261578 -0.050732344 0.14306372 -0.015502273 0.11485626 -0.09879128 0.011999161 -0.038025185 0.013052201 0.0051539796 0.17593078 -0.0027039924 0.13229029 -0.08905363 -0.0587616 0.1532999 0.15943196 -0.018776229 -0.09149431 0.080083095 0.17915677 -0.006067449 -0.06354262 0.14533095 -0.08612448 0.060976915 -0.047272425 0.05629077 -0.019888852 -0.034827475 -0.055193953 0.09898677 0.0496753 -0.24340117 -0.12760617 -0.16084519 0.13824865 -0.13173911 0.020218834 -0.07011838 0.106666066 0.049168494 0.035644792 0.008214995 0.005354847 -0.05414023 0.07737589 -0.009684596 -0.07894279 -0.02868848 0.14578831 0.013027935 0.032238185 -0.098878644 -0.1327264 -0.18559803 -0.042716183 -0.1488303 -0.13424471 0.077829555 -0.008311336 -0.10712692 -0.1500471 0.02646843 -0.01222923 -0.11925661 0.017330794 0.2700227 0.033414807 -0.057608154 0.12230226 0.112059146 -0.07276905 -0.08486705 -0.02996811 -0.0023114684 -0.13262971 0.06450853 -0.1337786 0.023523591 0.024309989 -0.15010628 -0.057844233 -0.17958486 -0.12806898 -0.15077087 -0.038746588 -0.26393723 0.076854765 0.05788058
see -0.07045268 0.2397011 0.15393385 -0.005203505 0.046870694 0.048992462 -0.020538036 -0.064164385 -0.09228323 -0.111678936 -0.05080421 -0.22590409 -0.016552463 0.01787154 -0.019554473 0.07458878 -0.03453142 0.14386617 -0.065220416 -0.08128669 -0.06181402 -0.10988651 0.15853949 -0.078166746 0.085301496 0.10137925 0.03588003 0.036683477 -0.055755705 -0.13001488 -0.16642943 -0.0107962405 0.051952034 0.13725515 -0.12839262 -0.082468875 0.01208401 0.14440414 0.021754963 -0.02095178 -0.022831796 0.041353766 -0.055331856 0.0530793 -0.059774555 -0.12985572 0.12596163 0.024913996 -0.056719337 0.08563953 -0.07844612 -0.07455074 0.09046425 -0.20793742 0.11203462 -0.00810333 -0.065025695 -0.0047224644 0.026264861 -0.120016 0.017248018 -0.10898285 0.014290502 -0.0030538314 -0.096478656 -0.047395695 -0.11064911 0.09731822 0.03595289 0.12773854 -0.16161925 -0.11727095 0.11933906 0.08123559 -0.046376016 0.12182207 -0.018589808 -0.10181917 -0.1233441 0.010695897 0.07083857 0.071271665 0.015214931 0.059095778 0.016808659 -0.053526852 -0.02645678 -0.17500548 -0.012778693 -0.011404118 0.25378785 0.0034458074 0.062236425 0.25001314 0.109591946 0.18151197 -0.12827492 0.12191421 -0.05153734 -0.18145405
thought 0.08377887 0.09326139 0.019647876 0.0020620544 0.06246689 0.053361684 -0.033459637 -0.05043499 0.10596188 -0.017252425 -0.09742246 -0.05249075 -0.000847307 0.084022865 0.10658076 -0.092063434 0.057804354 0.1762032 0.0642967 0.016653376 -0.041018754 -0.09249931 0.15804872 -0.16041723 -0.03612126 -0.20022705 -0.010711275 -0.0099716475 -0.09611955 0.032271992 -0.030719493 0.03135119 0.1942869 0.15988444 -0.039770138 -0.15401326 -0.006810811 -0.042017348 -0.056846455 0.10114696 0.009001196 -0.022838961 0.052257065 -0.07566048 -0.08252864 -0.078420416 -0.019911787 -0.03074475 0.007638287 0.07264382 0.014797268 -0.1598261 0.14811112 -0.18632817 0.12123573 -0.021725776 0.02411001 -0.03594052 0.04293 -0.022579005 -0.10869046 -0.19851121 0.16717036 -0.061197657 -0.16311137 0.06304904 -0.08311275 0.05440503 -0.17295249 0.15203936 -0.04710802 -0.19557473 0.13156685 -0.01588892 -0.07629072 0.07466013 0.06305399 -0.13388474 -0.13676831 -0.0075494335 -0.028145503 -0.04398578 -0.17126377 0.06461766 0.021483062 -0.0042586676 0.103917345 -0.089276135 0.11499635 0.04848388 0.15030897 0.042418245 -0.023854814 0.09741257 0.097743355 -0.058142222 0.024166398 0.28759286 0.008341893 -0.21579012
come 0.109158374 0.0939856 0.01622406 0.09764256 0.11761078 0.025337273 0.046542324 0.016457906 -0.050691735 -0.16107729 0.03870508 -0.2108818 -0.10240692 -0.04180913 0.014721959 0.00033561207 -0.14893863 -0.07803333 -0.06427192 -0.10216112 0.021888528 0.058566317 -0.029071746 -0.047616847 -0.056188587 0.20948006 0.13677962 0.030199897 -0.10961508 0.027883502 -0.13188583 -0.005804388 -0.0033037763 0.05594086 -0.14690237 -0.11542419 -0.06249591 0.07026278 0.019315738 0.029558802 0.06279931 -0.025614465 0.006682328 -0.07665686 0.0008652444 -0.16146845 0.26977816 -0.12685406 0.1271658 0.13094485 -0.071569555 -0.1561065 0.06303321 -0.037549954 0.05740644 -0.004759784 -0.05717746 0.14882614 -0.13399847 0.040678862 0.12129051 0.017736308 -0.07563381 -0.10137805 -0.20506501 -0.10462939 0.0027668758 0.056006275 -0.07855361 0.16970651 -0.029274357 -0.14897074 0.088989004 -0.18845071 0.013102278 -0.04568406 0.0064029237 0.1065389 -0.037552338 -0.18869984 0.09986095 0.14186096 -0.24613108 0.059455983 0.024103442 0.07564269 -0.080051884 -0.029521955 0.025254125 -0.09041938 0.10245213 -0.121371605 0.07136858 0.08308223 -0.12063924 -0.070218 -0.06441486 -0.08674566 0.064611115 -0.01651897
other 0.088693336 0.0428488 0.047431502 -0.007846399 0.059641976 0.007513223 -0.22345175 0.27876535 -0.15015419 0.03213975 -0.06571824 -0.03243516 -0.064185664 0.09190394 0.04849768 0.08970095 -0.165732 -0.015773732 0.14036372 0.13301963 -0.1296188 -0.072212406 -0.08116867 0.12102706 0.05907928 0.022000333 -0.02151381 -0.09862666 -0.013417567 -0.030494176 0.12610984 -0.15462896 -0.10463444 -0.064152814 0.19766389 -0.005260303 0.15074003 -0.12585725 -0.057351917 0.011679451 -0.20261683 0.10591429 -0.15469167 0.033659108 -0.013469523 0.29110965 -0.1527747 0.1569509 -0.03892253 -0.048368096 -0.06615383 -0.04663006 0.0039549577 0.05541357 0.1719622 -0.03305702 -0.018608138 0.010661953 0.14381793 -0.023276271 -0.10597981 0.15635459 0.026014972 0.07759438 -0.007922424 0.007028113 -0.011707864 0.01698116 0.08895087 0.0053144367 0.056333963 0.14388444 -0.024653994 -0.020530125 -0.09932901 0.038186833 -0.09501256 -0.012881589 0.04366072 -0.12080018 -0.03811395 -0.16156669 0.023085184 -0.010660684 -0.07577842 0.05479848 0.084640115 -0.016121844 0.07520517 -0.0042034695 -0.08275877 0.10580932 -0.08000238 0.13040754 0.1321662 0.13609874 0.033405393 -0.033496782 -0.155368 -0.049986865
eye -0.18379888 0.15111874 0.06687552 -0.1790137 0.06277337 0.00088751264 -0.10813377 -0.0132460585 0.089713275 0.03271206 -0.1112471 -0.12356124 -0.10986569 0.005529533 -0.010367711 0.04094327 0.02734316 0.030251294 0.023969328 0.06647084 -0.082073964 -0.016105147 0.15304033 -0.13728228 -0.017526371 -0.12993766 0.04870619 -0.04646452 0.02370373 0.079825334 0.002085251 -0.014764245 0.02348606 0.092425674 0.07454552 -0.028512135 0.13836308 0.15462077 -0.027763883 0.090206586 -0.06587161 0.12143828 -0.26644224 -0.17631844 -0.05344515 -0.05356693 -0.047235444 0.08223341 -0.016689114 -0.021217892 -0.044033017 1.8859335e-05 0.25717938 -0.02950122 -0.091218024 0.041206855 0.0642015 -0.15530948 0.12687936 0.01849251 -0.080306046 -0.14432323 0.15771852 -0.042179108 0.13469872 -0.15365508 -0.024395783 0.0052249567 0.029196277 -0.009635639 0.07842123 -0.11808873 -0.08962021 0.12933283 -0.32297865 -0.17693014 0.010209264 -0.05941646 -0.037078608 0.08133916 -0.039870206 0.095051594 0.092239 -0.090530924 0.033983868 -0.1376504 0.037525035 0.13397808 0.083863676 0.08028609 0.096204184 0.021644762 -0.14447722 -0.11284369 0.05677043 0.06778433 0.05629128 0.040688947 0.007377232 -0.0476514
french 0.16110484 -0.07911189 -0.06744623 0.14204709 0.0021677834 0.0074656545 0.014425162 0.17502086 -0.09567578 0.06377062 0.017048493 -0.096968636 -0.01963135 0.008958089 0.036374815 0.026373519 -0.17440908 -0.044297826 0.0580098 0.13494618 0.20247248 -0.025599686 0.068862624 0.038103923 0.093826264 0.22377685 0.13152508 0.012598714 -0.011038112 -0.029142871 0.29240698 -0.086944684 0.063296065 0.034044955 0.040483944 -0.041031074 0.09350448 -0.07098117 0.15007466 -0.11375163 -0.17646033 -0.07599172 -0.08867737 -0.035929132 0.027932012 0.078056164 0.042982683 0.11206176 -0.0015691291 -0.0852587 0.054732203 0.057739235 -0.03729112 0.052302614 0.14069086 0.0207534 -0.06344713 0.040803835 0.11546783 -0.062012274 0.06148708 0.22457893 -0.0428957 0.02687247 -0.046550155 -0.025509916 -0.042068034 0.108182475 0.048532248 -0.04381602 -0.08779627 0.18425769 -0.13897388 -0.02365301 -0.032960203 0.031544473 0.0097632045 0.09212406 0.0068390286 -0.07732373 0.13319857 -0.24994926 -0.049107943 0.06438609 -0.07070054 0.09637293 0.0047928947 -0.17908789 -0.17519985 -0.07541498 -0.2498372 -0.010779491 0.013719014 -0.019997552 -0.009746424 -0.01903048 0.007875406 -0.15471868 -0.12647754 0.003534097
hand -0.05604269 0.12505645 0.13456233 -0.13543396 0.04404811 -0.05154843 -0.11550506 0.02571171 -0.0056149205 -0.11885498 -0.09251357 -0.18556906 -0.20882553 0.013964539 -0.08643122 -0.008789307 -0.101757444 -0.0058445726 0.06920595 0.05789216 -0.06349089 0.012480055 0.011130362 -0.031202067 -0.0802785 0.01719876 0.12949944 -0.08615665 0.0836749 0.064963385 -0.16582397 0.042546913 -0.06986534 0.09940346 0.04337316 -0.14806859 0.1441184 0.14428164 0.05233801 0.14340588 0.13189384 0.089110695 -0.22243938 -0.14484493 -0.045063715 -0.13743773 0.096268676 0.042434745 0.12656246 0.018618371 -0.14541446 -0.05590492 0.27149487 -0.016649112 -0.056906093 0.04448595 0.110748425 -0.12798552 0.12462515 -0.032451857 -0.04054548 -0.053728558 -0.029992402 -0.06231331 0.17975384 -0.10605345 0.11857391 0.020520506 0.0006090338 -0.07621797 0.18019207 -0.112825796 -0.073322855 0.03346985 -0.19057073 -0.18930712 -0.05174876 0.00916191 0.03628809 0.059558317 0.02758502 0.110448435 0.070469595 0.009314577 0.027204413 -0.14232807 0.00096007105 0.11894417 0.10827069 0.03884087 -0.05298938 -0.0024679399 -0.099623024 -0.10658062 -0.038451206 0.08113946 -0.003042064 -0.08409782 0.014032093 0.124942236
went 0.052430194 -0.009218828 0.072782606 0.017679513 0.27501494 0.010245435 -0.06827421 0.05524107 0.037313376 -0.093777694 -0.124091424 -0.27982953 -0.1678414 0.10909964 -0.094094746 -0.018880716 -0.018510623 0.1016896 -0.019230919 -0.010591474 0.0113558285 -0.061538663 0.11642222 -0.1252591 -0.08381376 0.07825266 0.19553 -0.0022731174 -0.1791401 0.118296586 -0.06175243 0.07198658 -0.0758381 0.0759124 -0.16291347 -0.12081107 -0.011874225 0.09604808 0.14203428 0.100875884 0.1389625 0.029903878 -0.0049978155 -0.08048341 0.022982579 -0.029016465 0.13601594 -0.12645671 0.16260476 -0.032782484 0.009535968 -0.033921607 0.22605625 -0.050896265 -0.14433771 -0.015116238 0.020523572 0.0028685196 0.017556125 -0.0011711873 0.20507056 -0.028142132 -0.14675169 -0.10470123 -0.022752937 -0.13171872 -0.08862897 -0.06846401 0.02778864 -0.04565725 0.025166819 -0.10042966 -0.11720716 0.048819486 -0.062165957 -0.24524195 0.08386915 -0.010965349 0.016749019 -0.10681617 0.055260703 0.09659051 0.01875744 0.01776006 0.013076633 -0.030569077 0.008854939 0.09978149 -0.007682031 -0.15143298 0.13141851 -0.115168266 0.0048915087 -0.029749144 -0.19020821 0.043929115 0.0035817532 -0.06064945 0.053169284 -0.058300458
like 0.059984386 0.20398284 0.05553939 -0.09458102 0.0035374293 0.03750153 -0.12087318 0.035542235 -0.07791906 -0.11306925 -0.12724032 -0.077891 -0.04774023 0.06226494 -0.08291821 0.09602123 0.007887316 0.07266077 -0.049765237 -0.07157288 -0.2170978 -0.10396666 -0.023255106 0.0074582114 0.003900017 0.00943671 -0.009836007 0.14409925 -0.08360377 -0.06357755 -0.1624879 -0.08857492 -0.14680561 -0.015445873 -0.009901823 0.0424835 0.14701016 0.045907356 -0.1960136 0.08208538 -0.035083584 0.13978715 -0.101538435 -0.02440156 -0.008983551 0.016323758 0.05092265 0.088677466 -0.058588408 0.20112874 -0.08324821 -0.11446777 0.08627659 -0.14490497 0.030398162 -0.016420528 -0.0743535 -0.06284484 -0.0022277497 -0.1553433 0.010148683 -0.12324971 0.06991849 -0.015267715 -0.07072335 -0.06909038 -0.039414797 0.050964262 -0.0378921 0.21472135 -0.0060582515 -0.12393486 0.09404989 -0.023025805 -0.00013778303 0.16343936 -0.10623818 0.094291024 0.0062930426 0.014533765 0.0218481 0.12525275 -0.025701951 0.011403863 0.0648816 -0.059095226 0.057465836 -0.05868067 0.034604423 0.13017313 0.32868192 0.028792692 0.043678794 0.25326028 0.17975146 0.06313852 -0.15824845 0.02029842 -0.1404878 -0.049216796
some 0.05618728 -0.094129205 -0.025129689 0.01995737 0.038104523 0.048597004 -0.060217213 0.18418288 -0.1685052 -0.089212 0.009412193 -0.019732635 -0.123071484 0.09937808 0.03878906 0.039184753 -0.16305609 -0.02068809 0.10877258 0.075097054 -0.0898087 0.07517774 -0.18178302 0.19209784 0.07039773 0.12325307 -0.055158027 -0.050594322 0.027760927 0.029279869 0.050913997 -0.08207594 -0.23026988 -0.15806556 0.09695845 0.033865344 0.02400072 -0.15712449 -0.121858045 0.08035891 -0.13715497 0.025276788 -0.13785675 -0.06273364 0.022814482 0.18679358 -0.038577065 0.060663722 0.015556252 0.023676207 -0.10589042 -0.07047479 -0.031124836 -0.00475878 0.07781368 -0.007474173 -0.13857016 -0.05774567 -0.015266616 0.002289514 -0.03547517 0.16993949 0.055589832 -0.027308244 -0.19121656 -0.17682625 0.059614856 0.11160678 -0.048298962 0.1726554 0.17575556 0.038737625 -0.09406025 -0.19672401 -0.0040007457 0.030158946 -0.057433657 0.20573495 0.13009281 -0.19104728 -0.013087676 -0.08213703 -0.030013232 0.0497086 0.012707385 0.05786223 0.1524641 0.0020833379 0.00020549419 0.045009766 -0.09558334 0.010967774 0.06286596 0.12235587 0.075206675 0.07693449 0.06578164 -0.17417198 -0.08648476 -0.0063489466
your 0.14745481 0.049913164 0.006966506 0.043246727 0.03957342 -0.022720115 0.0074954936 -0.023934854 -0.16363409 -0.17058425 0.05026712 -0.03471953 -0.015103878 -0.038336325 -0.048163895 -0.026331924 0.02828558 -0.14264216 -0.04492073 -0.12791081 -0.08491865 -0.026710263 -0.15670843 0.015044181 -0.16737157 0.030643139 0.018529758 -0.008878114 0.017875642 -0.049455587 -0.22172579 0.059345983 -0.1608904 0.01930809 -0.033731733 0.11965076 0.028444044 -0.038100325 -0.17807265 0.024880664 0.19207966 0.09181778 0.09449734 0.049394816 -0.049129292 -0.024729872 0.09708366 0.07184135 0.11516562 0.2038099 -0.082119174 -0.11784327 0.07309366 -0.046918288 -0.08371988 0.034987435 0.03860346 0.19497511 -0.025313254 -0.102958255 0.028863786 0.025318265 -0.07636377 -0.041654777 -0.06489312 -0.01761658 0.09111275 -0.04290291 -0.113664486 0.027301352 0.024439123 -0.15172647 0.033069517 -0.18608597 0.15745766 0.06406291 -0.072347574 0.21154681 0.028544674 0.08180105 0.10367434 0.101491764 -0.2549234 0.029594285 -0.06966633 -0.06336125 -0.09036006 -0.060393658 0.057474688 0.0946736 -0.07960831 0.01639608 0.024219444 0.21572234 -0.081872664 -0.11911819 -0.17112912 -0.1421119 0.052320283 0.16552497
after -0.017649638 -0.16440357 -0.003186752 0.008312957 0.19392298 0.06541221 -0.037848055 0.060589205 0.05979224 0.11802517 -0.1103479 -0.08284507 0.05556626 0.02448107 -0.019812599 -0.17496674 -0.10942692 0.14528164 0.12640683 0.06765862 0.111448854 -0.065229855 0.05970976 0.056047577 0.09870431 0.055224802 0.17169175 -0.10274024 -0.07801841 0.030002289 0.094609946 0.12297555 0.07021507 0.12230522 -0.2181143 -0.13290371 -0.102519654 -0.1304451 0.12805927 0.036124066 0.049583472 -0.052929442 0.11976374 -0.11694078 -0.11939297 -0.09213497 0.2118618 -0.1346151 0.017862715 -0.07563975 0.13675503 -0.018727517 0.007090081 0.002966594 0.06412948 -0.04215197 0.030838298 -0.078191936 -0.15871449 0.016962448 0.11085676 0.08872168 -0.14454189 -0.14586249 -0.15413222 -0.024329232 -0.009665394 -0.15650502 -0.08738896 0.08798388 0.11433543 -0.005933861 -0.042469416 0.038503624 0.06338706 -0.11766416 0.061503574 0.022312127 0.072920956 -0.0855224 0.12021366 -0.02513588 -0.068696454 0.01423733 -0.07884575 0.095217496 -0.09856688 -0.005539357 -0.14450148 -0.022360152 0.17083804 -0.11779139 0.07801631 -0.0977119 -0.2059362 -0.055802938 0.047431443 -0.12140515 0.12101871 -0.01997472
old -0.0065837046 0.105886795 0.016175216 -0.19500157 0.02250248 -0.093550466 -0.03768869 0.08143915 0.19108649 0.019247351 -0.15596326 -0.01587985 0.07852045 -0.02040083 -0.015265669 -0.018318208 0.007467971 0.017743787 -0.02759376 -0.030510189 -0.17922273 -0.041525427 -0.11580672 0.06999648 0.07595719 0.020603009 0.17112193 0.056040075 -0.10289761 -0.023169566 0.08426906 -0.027811233 -0.19586122 0.063624844 -0.13378891 0.031534106 0.1250473 -0.094605364 -0.13104168 -0.033132713 -0.021281732 0.22670989 0.029931417 -0.17438582 -0.022897301 -0.061623394 0.04038225 0.05160811 -0.16537653 0.15957475 0.07398156 -0.006406842 0.011663794 0.06688151 -0.05370442 -0.08647191 0.118665785 -0.08356869 -0.07397274 -0.058333445 0.102323174 -0.040698007 -0.050546616 -0.067613274 -0.007166761 -0.005597122 -0.07022154 -0.16248219 -0.17235327 0.1796085 0.19758068 0.06550737 0.12546298 0.09071805 0.11312988 -0.01433573 -0.1658406 0.09000821 0.074603416 -0.005923672 0.0889566 0.05842672 0.02978979 -0.06469011 0.09777558 0.051145695 -0.021024952 0.096207894 -0.10574585 0.06018114 0.24414033 -0.07518535 0.021207703 -0.06153718 0.002940953 -0.04540888 -0.08063708 -0.24386834 0.119897634 0.119983
befor -0.12173866 -0.093882404 0.07507881 -0.07069828 0.12814416 0.04288561 0.017248796 -0.007704884 0.1477741 0.13562901 -0.036294833 0.00083803816 0.060939196 0.055182032 0.16872354 -0.11414319 -0.038998872 0.1787961 0.15050757 0.07274813 0.08621757 -0.058692507 0.19144097 0.07014094 0.16720498 0.012073061 0.13338092 -0.094921306 -0.13510549 0.046950083 0.16514231 0.08721477 0.12702632 0.039688766 0.069714844 -0.17684475 -0.06534281 -0.1658312 0.15549387 0.037643414 -0.08931612 -0.14148788 0.0045525646 -0.19097671 -0.085201345 -0.041570667 -0.00050222373 -0.08072457 0.042966723 -0.078230545 0.119362146 -0.055428043 -0.07079866 -0.038383864 0.17612301 -0.062165745 0.015986899 -0.11535958 -0.08064132 0.05996298 0.024349082 0.004482703 -0.008217402 -0.08926454 -0.1254403 -0.12665164 -0.08186878 0.037087463 -0.073057055 0.085687436 0.15569842 -0.04148537 -0.0078402255 0.047509953 -0.084415354 -0.14926396 0.09797922 -0.029099768 0.03675001 -0.13972472 0.017772075 -0.17936066 0.030663844 -0.012841236 0.05229942 0.06434865 0.13068108 0.008072152 -0.027261116 -0.06401174 0.07025337 -0.077335164 0.02435713 -0.12054041 0.0066666002 0.022822658 0.19334204 -0.042773798 0.14545275 -0.2281526
room 0.057316635 0.048951533 0.034065362 -0.010060694 0.15554902 -0.0102664875 -0.07970479 0.107069746 0.06607163 -0.038848918 -0.14999774 -0.17873341 -0.15139525 0.05398291 -0.012523386 0.031386573 -0.08686195 0.06060386 -0.01747971 0.022695804 0.014105419 0.0015917235 0.199784 -0.00042888115 -0.049000017 0.21901192 0.17452724 0.0014939198 -0.039540414 0.14717755 0.071825214 0.039123893 0.069429 0.13617516 -0.09332002 -0.20142615 0.056104302 0.020841485 0.109806865 0.02423068 0.023671178 0.0801979 -0.068240374 -0.054454885 -0.05618611 -0.06918819 0.16093817 -0.22188987 0.15591834 -0.16426279 -0.0019773748 0.058935508 0.09315463 -0.0018155124 -0.04063484 -0.117758475 0.062851764 -0.056681827 0.10798147 0.084355906 0.20286046 -0.0054477733 -0.19178562 -0.026145834 0.0035599424 0.027849497 -0.088382125 -0.099498816 0.039116856 0.01039114 -0.06963438 -0.11008221 -0.12800771 0.14825164 -0.13635914 -0.14292097 0.035232317 0.006531529 0.04817881 -0.031730317 0.086991906 0.13788065 0.07014136 -0.114424504 0.06548215 0.013757957 0.032795317 0.10007737 -0.043242678 -0.16073468 0.17185275 -0.07395377 -0.005169875 -0.18635345 -0.04425027 -0.06128306 -0.04073225 -0.16374288 0.13910665 -0.019099403
veri 0.044662442 0.20138894 -0.110387795 0.0029317087 0.012362331 0.12155775 0.015005716 0.049432117 0.034178957 0.10351638 -0.1382852 0.11924416 0.15426224 -0.042006556 -0.0387511 -0.008266412 0.10811731 0.037746716 0.03854162 -0.03476725 -0.11524043 -0.055142518 -0.054805312 0.014895751 0.014836823 -0.15956873 0.053791687 0.039617237 -0.039059278 -0.03486261 0.0032239784 0.013314614 0.030094827 0.13558458 -0.073416196 0.06399799 0.0900963 -0.066640794 -0.17941363 -0.0023125063 -0.035935663 0.20113893 0.16076407 -0.06134717 -0.17159511 0.0141814705 0.036486555 0.078084506 -0.057372246 0.16294722 0.010242672 -0.043941792 -0.039744485 -0.042211644 0.103262246 -0.10834942 0.03652138 -0.024709921 -0.06645277 -0.12555309 0.0050106966 -0.11666649 0.019645594 -0.07516347 -0.1831418 0.10201492 -0.008248579 -0.1753878 -0.26599583 0.21183474 0.0032426536 -0.12788492 0.18198933 -0.15839788 0.03550041 0.08857728 -0.05131628 0.02388862 -0.03556993 0.10417772 0.07540691 0.0395353 -0.21237992 -0.013014939 -0.01857724 0.027959399 -0.07884787 -0.0130640175 -0.037586704 0.10814076 0.19710752 -0.023517257 0.007520952 0.106308624 0.08561528 -0.20527698 -0.10614943 0.049962893 0.16219577 0.051144063
men 0.15323968 -0.07404551 -0.134794 0.046786796 0.00030244686 0.034698505 -0.056894526 0.2798562 -0.22639968 0.03760513 -0.06289376 0.020680003 -0.12547702 -0.0135866515 -0.0022492118 0.051306836 -0.21160923 -0.0481336 0.108222105 0.18588164 0.00243835 -0.0779108 -0.09026764 0.14267401 0.014795733 0.076522164 -0.05798487 0.014993268 0.0475222 -0.021008136 0.17778347 -0.23191726 -0.112532474 -0.11330381 0.082107835 0.055208534 0.106315926 -0.027281545 -0.0848389 -0.025432007 -0.15339027 0.041773498 -0.2339796 0.022684988 0.025936227 0.1749741 -0.0021300174 0.095105484 0.04817695 -0.03469657 -0.1054839 -0.065384105 0.04132029 0.06693277 0.11653656 0.049778897 -0.14427789 0.0046571842 0.022893822 -0.13010027 -0.08243238 0.18696451 0.031625014 0.023219978 -0.08630357 0.07439854 0.0063638776 0.044165254 0.075634465 -0.007258765 -0.038767695 0.15949248 0.0048773387 -0.12856996 -0.019894937 0.057303388 -0.10766847 0.20486183 0.028246298 -0.08793698 0.026579006 -0.102356814 -0.10755457 0.079160996 -0.06734956 0.051621493 0.03197843 -0.025403062 -0.08832769 0.004500337 -0.06660814 0.056626 0.02110002 0.0155940205 0.08839669 0.042227022 0.03828475 -0.100615904 -0.24992694 0.009568685
day 0.11670328 -0.16791494 -0.038738932 0.048361726 0.1861943 0.035332724 -0.049873967 0.10413636 0.115566805 0.16335873 -0.10584676 -0.04077104 0.081061915 0.043574885 0.039925776 -0.16187595 -0.12741941 0.09385734 0.11840739 0.10063355 0.10958593 -0.012827511 0.02806318 0.12662405 0.10385959 0.022877555 0.12556523 -0.12004593 -0.050401855 -0.022813004 0.17330441 0.13177626 0.12118612 0.16933227 -0.18845344 -0.06641414 -0.099111706 -0.23878679 0.03405327 0.019425051 -0.0496288 -0.05819306 0.17725585 -0.10155155 -0.11062956 -0.047606956 0.088153064 -0.12860997 0.012635392 -0.025846077 0.10764763 -0.017906511 -0.07501474 0.060569655 0.17138973 -0.06340369 0.0518331 -0.053100657 -0.084744036 -0.021055354 0.064117976 0.055896387 -0.13173765 -0.115978576 -0.23557557 0.036955025 -0.009230413 -0.16317703 -0.08757576 0.0747208 0.047451433 0.024870103 -0.047209613 0.04538495 0.09241923 -0.01501767 0.045745645 -0.054939836 -0.021579958 -0.018148616 0.124349244 -0.126173 -0.16509221 0.04157725 -0.07994365 0.15869816 -0.080387786 -0.03698909 -0.1288247 -0.028334284 0.017282441 -0.074384294 0.07841938 -0.04026518 -0.16224669 -0.076560125 0.089282535 -0.016323935 0.09839279 -0.039845645
seem -0.050947163 0.06971955 -0.00061302714 -0.08629114 -0.019838031 0.04381547 -0.14147101 -0.00025720338 0.101144776 0.08064354 -0.09278206 0.06339909 -0.013379377 0.04728069 0.078851394 0.026999718 0.10073532 0.19166681 0.1941814 0.114600554 -0.06465202 -0.15414906 0.17342989 -0.100324705 0.044122837 -0.20272784 -0.04668743 0.035264235 -0.08151223 -0.021170555 0.034118213 -0.055594824 0.15912816 0.064061254 0.1595736 -0.11681608 0.06724659 -0.07374727 -0.008852628 0.026833363 -0.13495392 -0.023522539 -0.074534476 -0.10681744 -0.058153883 0.09549743 -0.15745957 0.11959207 -0.059360128 0.011028952 -0.034678984 -0.09242762 0.113458104 -0.10546332 0.16479214 -0.016990876 -0.049932033 -0.08315701 0.09322097 -0.012531146 -0.15837358 -0.13752134 0.21354333 0.016507093 -0.00251236 0.10059035 -0.055862695 0.0514914 -0.03982835 0.0877198 -0.01647053 -0.06406526 0.08388557 -0.037757333 -0.12602095 0.10364445 0.009424953 -0.19080958 -0.06602405 0.009466146 -0.078659 -0.1612522 -0.037721153 0.067791395 -0.032397207 -0.061657056 0.12917009 -0.04204006 0.059989586 0.02553171 0.04641628 0.050542206 -0.08761469 0.097319596 0.18821032 -0.010275327 0.09075353 0.252777 -0.12315186 -0.21169378
smile -0.16347924 0.25434396 0.013899858 -0.21973027 0.10591459 -0.01192894 -0.09819153 -0.06048781 0.12722257 0.034110256 -0.12037887 -0.041699726 0.014207674 0.011556299 0.012303955 -0.0034178093 0.17677347 0.0032168156 -0.012070842 -0.030209238 -0.13696648 -0.0652796 0.12124398 -0.1301819 -0.12621972 -0.17853248 0.08825551 0.006645641 -0.037505977 0.07334011 -0.028187718 -0.020132663 -0.07005857 0.12031294 -0.036184616 0.03551138 0.089153275 0.16359805 -0.12926291 0.041071422 0.01508413 0.22334129 -0.096135445 -0.2148246 -0.11244959 -0.015868079 -0.05492306 0.051056195 -0.042825885 0.022691637 -0.038915504 0.0060055926 0.22892518 -0.07127103 -0.11246368 -0.023358675 0.06869797 -0.09573144 0.06723558 -0.082584865 -0.018208249 -0.20813812 0.15386374 -0.04610749 0.04395588 -0.10243305 -0.04893995 -0.1266455 -0.101777166 0.043191154 0.03225885 -0.17266333 -0.014129057 0.06413228 -0.19193321 -0.12267703 -0.013365327 0.031838194 -0.052734207 0.07731539 -0.017011635 0.15614146 0.033735048 -0.09088161 0.042953372 -0.14436491 -0.022218915 0.1748717 0.051491603 0.065432385 0.15086307 -0.014878169 -0.10658525 -0.039864648 0.047700442 -0.073937654 -0.028616892 0.05056907 0.015471277 -0.016893528
well 0.22987321 0.20793729 -0.028802786 0.030764224 0.021905996 0.023298046 -0.009338551 0.054436132 -0.09018914 -0.14819045 -0.01607738 -0.05615196 0.038788956 0.036820322 -0.075611964 -0.04124871 0.011971465 0.051923428 0.015924968 -0.08109208 -0.060696058 -0.08802058 -0.09135176 -0.05350643 -0.09988656 0.01247112 0.03295895 0.048477106 -0.09555731 -0.026614413 -0.15500577 0.005622846 -0.068413384 -0.009932099 -0.05989911 0.035533134 0.0004223746 0.0035500138 -0.17350185 0.0148654785 0.057219964 0.052072614 0.15293874 -0.013071427 -0.010531687 -0.011401007 0.15469927 -0.05028272 0.043518405 0.19281173 -0.05907265 -0.14561312 0.022445459 -0.04306003 0.044270974 -0.045020446 -0.059573703 0.0897695 -0.016905041 -0.10407383 0.090336785 -0.06514858 0.038837332 -0.012868362 -0.1803556 0.046837945 0.00060084584 -0.09961383 -0.14882866 0.1667655 -0.09510644 -0.12462934 0.113182716 -0.19046971 0.14980775 0.20673752 -0.0709749 0.17390198 -0.05302867 0.014018987 0.05707701 0.11458635 -0.33617935 0.033278417 -0.022530911 0.010676802 -0.07440022 -0.08576875 0.016795315 0.063250676 0.13303092 -0.050052315 0.01404043 0.22320431 0.03620857 -0.15837136 -0.18986641 -0.013223706 -0.11928506 0.06533245
count 0.06500396 0.12914571 -0.054410625 -0.019497056 0.17596197 -0.00336072 0.038108468 0.030445544 0.0066217612 -0.024241805 -0.09096104 -0.11982794 0.049833626 -0.0711371 -0.04632199 -0.088474564 -0.049467377 -0.07839468 -0.036647767 -0.030839387 0.08602135 -0.0394445 0.035562005 -0.03732662 -0.14993808 0.13471135 0.16677997 0.069443375 -0.07659392 0.06284504 0.047683302 -0.061516915 -0.102149576 0.17418714 -0.20489287 -0.012827968 0.011816388 0.10314708 -0.027166365 -0.0048743077 0.10083935 0.11412912 0.08547425 -0.15903156 -0.07141295 -0.12580876 0.28538036 -0.12813342 0.06349873 0.056833424 0.03627775 -0.037842922 0.089735016 0.032212116 -0.0064840866 -0.026975183 0.008979762 0.060331967 -0.14772117 -0.15000308 0.10968886 -0.08183563 -0.07851587 -0.06988773 -0.10280219 0.00049348257 0.008601213 -0.18000509 -0.14957495 0.098753266 -0.0928017 -0.08948869 0.09583605 -0.07425015 0.046739716 -0.058778405 -0.020808546 0.18593335 0.04906656 -0.02368859 0.11077249 0.1807719 -0.17727393 0.022827845 -0.021152496 0.0063343626 -0.14919311 0.100976154 -0.12794875 -0.011178915 0.18343675 -0.11196016 0.036782917 -0.09788281 -0.14499135 -0.17633922 -0.13741592 -0.08953899 0.08686701 0.0559626
even -0.015145157 -0.011881412 0.018524319 0.10558528 0.1680255 0.05311826 -0.08829245 -0.024301037 0.021014355 0.17095134 -0.02096376 -0.07726402 0.19909057 -0.021336433 0.18862297 -0.044576142 -0.08658636 0.0014897846 0.15826336 0.071462594 0.10034276 -0.06497248 0.21116664 -0.03781822 0.0617494 -0.00024983857 0.018741418 -0.1149167 -0.13216558 -0.034640588 0.2437993 -0.03362859 0.17190805 0.18624641 0.023346933 -0.06942926 -0.10251086 -0.15911804 0.069489084 -0.06022365 -0.17347592 0.0021280881 0.12672094 0.002349363 -0.20961657 0.050445426 0.050588865 0.005334232 -0.025220029 -0.010927544 0.08239998 -0.059461273 -0.040290598 0.02035149 0.254116 -0.043560136 0.0450143 0.16510293 0.012042332 -0.041138425 -0.06719884 0.027216261 -0.04852676 0.009534498 -0.13571668 -0.01696425 -0.07624722 -0.07336481 -0.04803144 0.10931714 -0.10255677 -0.038521014 -0.008951944 0.02603768 -0.104773566 0.057197373 0.024308914 -0.15744542 -0.04500658 -0.03279006 0.045606684 -0.15702116 -0.10038648 -0.032976113 -0.12207155 0.047706723 -0.015781393 -0.15038608 0.0071778484 0.025766328 0.080032036 -0.028995534 -0.03807899 0.0882709 0.006064331 -0.0101845795 0.0124194035 0.1393238 0.11511389 -0.29172298
chapter 0.06301003 -0.09831494 -0.07043677 0.0033031078 0.15703063 0.09339304 0.0043114037 0.08451767 0.06680305 0.11114497 -0.10505815 -0.07615977 0.08406428 0.0066475454 -0.03960601 -0.0913986 -0.086670905 0.107173525 0.09757491 0.09622556 0.113129266 -0.09982484 0.0583289 0.07233625 0.079361334 0.121381715 0.22993942 -0.024247924 -0.091896564 -0.005624499 0.15124686 0.08922613 0.004603893 0.13632196 -0.15969238 -0.07782424 -0.0042798202 -0.14111356 0.08695452 0.01363597 -0.04546848 0.04546563 0.117341414 -0.14847443 -0.13219607 -0.03257786 0.18845475 -0.04701488 0.015862038 -0.016868994 0.12626976 0.020419313 -0.026317105 0.023715958 0.08619649 -0.07995617 0.004037188 -0.06393771 -0.101929866 -0.048621286 0.17914264 0.107190736 -0.15874295 -0.13590296 -0.1647486 -0.08111346 -0.071201116 -0.1552443 -0.11317991 0.094025046 0.082933344 0.0032413155 -0.068505175 -0.007340686 0.046853136 -0.10499584 0.037985813 0.09645544 0.07219666 -0.052949864 0.19377503 -0.09786094 -0.13442543 0.0002962004 -0.08130223 0.08500963 -0.103639424 -0.04712496 -0.21478851 -0.06329432 0.043537166 -0.11853003 0.07816442 -0.04373851 -0.17741634 -0.15408215 -0.01578499 -0.18636969 0.10544786 0.038243406
moscow 0.15950982 -0.20611748 -0.032402452 0.18982221 0.048115645 0.043799922 0.04204014 0.085063316 -0.011453878 0.059802145 -0.022556571 -0.062569566 0.039019883 0.009485549 0.09305665 -0.06954123 -0.1828107 0.043375324 0.074792735 0.05125634 0.1729659 0.044630866 0.027767794 0.0707216 0.13031676 0.17317046 0.09353874 -0.035370372 -0.062954135 -0.08086135 0.18517981 0.1021751 0.14674288 0.14583112 -0.08008211 -0.09377951 -0.050910275 -0.24044193 0.089949936 -0.037545796 -0.09371156 -0.11340111 0.06134509 -0.0068236496 -0.038381074 -0.06387956 0.10095285 -0.04938121 0.047877777 0.011676542 0.099422544 -0.019530796 -0.12878297 0.0301019 0.19628894 -0.014090796 -0.029225148 0.05703343 0.00069872173 0.005418947 0.10159255 0.15914859 -0.14542422 -0.092842944 -0.21982539 0.009219669 -0.047660414 0.051362913 -0.076897696 0.09888611 -0.025006384 0.062740125 -0.07916792 -0.05426962 0.099720575 0.030035278 -0.0005177288 0.031576764 -0.027998745 -0.03510195 0.16832463 -0.20007643 -0.17987756 0.11018195 -0.036583677 0.1557129 -0.023365712 -0.2056922 -0.115375474 -0.050232362 -0.12075895 -0.046967614 0.10592958 0.03475725 -0.07291533 -0.023210749 0.04766057 -0.08348433 0.12724008 -0.028407566
began -0.031296995 0.034094382 0.049447276 -0.06925544 0.25318715 -0.00971332 -0.13386667 0.059637953 0.024451453 -0.09154791 -0.1709773 -0.21057746 -0.13484547 0.17974836 -0.0891109 0.012289884 0.11071374 0.07711146 -0.007777759 0.023909096 -0.056389842 -0.08822718 0.119124904 -0.14561425 -0.051497858 -0.009536667 0.16192439 0.0007654252 -0.12748699 0.08494517 -0.10474734 0.04720179 -0.1785906 -0.010410797 -0.12313882 -0.008014057 0.06845577 0.099007785 0.07789208 0.095341325 0.096408725 0.12705293 -0.003080308 -0.08204235 0.029616557 0.09608193 0.037280764 0.047282215 0.09610688 -0.034859337 0.029460853 0.03578267 0.2878389 -0.09743205 -0.20342897 0.024982024 -0.007868065 -0.08290483 0.06861572 0.035228655 0.13848653 -0.03118779 -0.0185024 -0.10772528 0.06405329 -0.23427097 -0.08892007 -0.07359813 0.0310889 -0.07941959 0.030265654 -0.098895386 -0.15002172 0.05257196 -0.13393313 -0.11932586 0.10888362 0.032029867 0.110927925 -0.078397036 0.088637576 0.09631052 0.10792748 -0.11866358 -0.015778143 -0.1555554 0.04207687 0.09494405 -0.008413069 -0.011017 0.13263279 0.0046046963 -0.049471762 0.12398153 -0.08711572 0.07475326 -0.04508617 -0.03286434 -0.087959036 -0.038097844
